tree
version=v4
num_class=1
num_tree_per_iteration=1
label_index=0
max_feature_idx=21
objective=binary sigmoid:1
feature_names=is_browser productive_keyword_hit tab_switch_frequency_5m app_switch_frequency_5m idle_seconds gaze_present face_present absent_seconds_estimate focus_score_window_5m gaze_present_ratio_5m face_present_ratio_5m productive_ratio_60m browser_ratio_60m distractor_ratio_60m switches_60m_norm idle_mean_5m_norm is_coding_window is_terminal_window is_docs_window is_distracting_window hour_sin hour_cos
feature_infos=[0:1] [0:1] [0:24.550599999999999] [0:25.248100000000001] [0:137.82839999999999] [0:1] [0:1] [0:77.922499999999999] [0:1] [0.001:1] [0.033700000000000001:1] [0:1] [0:1] [0:1] [0:1] [0:1] [0:1] [0:1] [0:1] [0:1] [-1:1] [-1:1]
tree_sizes=3430 3419 3432 3453 3442 3444 3442 3446 3409 3442 3439 3456 3447 3454 3457 3451 3451 3464 3462 3456 3445 3441 3457 3462 3451 3441 3464 3443 3447 3460 3462 3484 3460 3448 3468 3447 3469 3459 3416 3449 3452 3450 3457 3464 3464 3458 3442 3458 3456 3439 3466 3458 3462 3423 3455 3450 3462 3463 3473 3461 3432 3469 3470 3470 3446 3449 3449 3432 3463 3453

Tree=0
num_leaves=31
num_cat=0
split_feature=12 19 11 18 0 18 1 8 9 20 21 9 10 3 11 3 11 11 14 20 13 9 11 13 4 13 4 3 8 4
split_gain=6258.86 1250.4 249.597 180.316 54.592 57.853 20.5569 18.2337 14.5588 10.0973 9.5977 10.5858 8.44207 7.71183 6.94134 6.84482 6.94284 6.7964 6.73804 6.59924 6.3548 5.95301 5.74758 5.59869 5.55387 6.70319 5.33559 6.59464 5.24891 6.6093
threshold=0.55605000000000016 1.0000000180025095e-35 0.53045000000000009 1.0000000180025095e-35 1.0000000180025095e-35 1.0000000180025095e-35 1.0000000180025095e-35 0.6865500000000001 0.70040000000000013 0.78656600000000021 -0.98296299999999992 0.9315500000000001 0.73855000000000015 7.2683500000000008 0.61925000000000008 5.2620500000000012 0.39440000000000003 0.20645000000000002 0.69250000000000012 0.78656600000000021 0.13785000000000003 0.84365000000000012 0.47890000000000005 0.48620000000000002 10.385900000000001 0.24175000000000002 28.339950000000005 6.1098500000000007 0.47890000000000005 30.746800000000004
decision_type=2 2 2 2 2 2 2 2 2 2 2 2 2 2 2 2 2 2 2 2 2 2 2 2 2 2 2 2 2 2
left_child=2 3 7 6 -4 14 8 19 9 12 -8 15 18 -11 -6 16 -12 -10 20 21 -2 -1 -18 28 25 -22 27 -25 -19 -30
right_child=1 -3 4 -5 5 -7 10 -9 17 13 11 -13 -14 -15 -16 -17 22 23 -20 -21 24 -23 -24 26 -26 -27 -28 -29 29 -31
leaf_value=0.017106179750325509 -0.0037674597425502898 0.056473687515283581 -0.051297758720694531 -0.036496007018048331 -0.0084700772879821098 -0.041577552581080382 -0.018615560581687798 -0.021115220427116929 0.023061175207837285 0.023106617994714789 -0.0079873644274400333 -0.012528771168253508 0.0053531953159668662 0.042670950090705213 0.025254187701153921 0.014082252409796546 0.02711186821428422 0.017692481129680367 0.028030672552186452 0.034658176676792156 0.028328029833187971 -0.0074339683476085869 0.0031187661897297495 6.5075498870477508e-08 0.022674022753379781 0.0015848860764996675 0.041113238032960422 0.029455206257907162 0.009694881403599382 0.017266222822620872
leaf_weight=34.371509671211243 11.450964778661726 980.67460003495216 1031.4124044924974 63.081925392150879 10.650761514902117 561.81332525610924 11.763982459902762 14.179382488131521 80.447840854525566 44.585193961858749 30.242608711123466 18.995392307639122 35.201293408870697 33.245411038398743 10.793436393141745 159.35252358019352 13.131060138344763 178.30545772612095 86.803183704614639 13.759008049964903 11.860374078154562 11.65471315383911 28.847863107919693 11.749192222952844 109.86257837712765 29.051611483097076 12.551308035850523 16.002152726054192 401.32348389923573 142.83551734685898
leaf_count=135 46 3691 4347 262 43 2345 48 58 314 174 122 77 140 127 42 628 51 700 337 53 46 47 115 47 429 116 48 62 1589 561
internal_value=6.50755e-08 0.0300293 -0.0446582 0.01308 -0.0471269 -0.0397311 0.0152176 0.00917457 0.0168764 0.0219315 0.00757814 0.00883374 0.0192559 0.0315899 0.00844215 0.0106083 0.00288405 0.0146976 0.0212031 0.0164549 0.0175014 0.010822 0.0107879 0.0138057 0.0191394 0.00951078 0.0247814 0.0170463 0.0131826 0.0116934
internal_weight=4200 2511.37 1688.63 1530.69 1614.67 583.258 1467.61 73.9646 1205.28 362.061 262.333 250.569 284.23 77.8306 21.4442 231.574 72.2215 843.215 249.029 59.7852 162.226 46.0262 41.9789 762.767 150.775 40.912 40.3027 27.7513 722.464 544.159
internal_count=16800 9730 7070 6039 6777 2430 5777 293 4736 1415 1041 993 1114 301 85 916 288 3321 974 235 637 182 166 3007 591 162 157 109 2850 2150
is_linear=0
shrinkage=1


Tree=1
num_leaves=31
num_cat=0
split_feature=12 19 11 18 0 18 1 8 9 7 21 20 14 3 11 11 2 20 7 11 21 8 7 11 3 11 2 14 2 9
split_gain=5892.07 1178.22 235.068 169.732 51.4854 54.4792 19.3534 17.1723 13.7114 11.5945 13.2649 9.50962 7.98401 7.26378 6.54113 6.39482 6.32629 6.21823 5.89921 8.59481 7.49264 6.03462 5.85549 6.91219 5.8554 6.45287 7.29099 5.72907 5.71502 5.60689
threshold=0.55605000000000016 1.0000000180025095e-35 0.53045000000000009 1.0000000180025095e-35 1.0000000180025095e-35 1.0000000180025095e-35 1.0000000180025095e-35 0.6865500000000001 0.70040000000000013 3.1897500000000005 -0.98296299999999992 0.78656600000000021 0.69250000000000012 7.2683500000000008 0.61925000000000008 0.20645000000000002 7.6323000000000016 0.78656600000000021 19.018700000000006 0.33085000000000003 -0.91597549999999994 0.52875000000000016 15.526750000000002 0.50625000000000009 5.2620500000000012 0.39440000000000003 5.3438500000000007 0.85580000000000012 6.6453000000000015 0.84365000000000012
decision_type=2 2 2 2 2 2 2 2 2 2 2 2 2 2 2 2 2 2 2 2 2 2 2 2 2 2 2 2 2 2
left_child=2 3 7 6 -4 14 8 17 11 -8 -11 12 18 -13 -6 -10 -14 29 20 21 -2 -20 23 -22 25 28 -27 -26 -12 -1
right_child=1 -3 4 -5 5 -7 9 -9 15 10 24 13 16 -15 -16 -17 -18 -19 19 -21 22 -23 -24 -25 27 26 -28 -29 -30 -31
leaf_value=0.016597121455355295 0.029847244924450785 0.054823885903437258 -0.049792257294655203 -0.035416525182605602 -0.0082208680332672233 -0.040348337493800783 -0.013015343045619663 -0.020492912767849043 0.02237398766568675 -0.022934875841049338 -0.016542755146133459 0.022419461766662131 0.021567427878827098 0.041417341436356052 0.024514157904378154 0.013393611073289376 0.04069657484023359 0.033643322421136754 0.020440630723253476 0.02557220803931928 0.020732598947676761 -0.0051336628080617822 -0.0049070304916631847 -0.007229439682327159 0.017138184493125631 0.023463397640611158 -0.0014908337684948621 0.0032654621987085312 0.01074053441648133 -0.0072148746825795706
leaf_weight=34.368994504213333 12.659502699971197 979.89313879609108 1030.734176248312 63.060922861099243 10.650570303201677 561.57058319449425 22.680404797196388 14.177801594138144 80.437144577503204 10.727608323097227 19.402573764324192 44.579241752624512 78.83390936255455 33.230281859636307 10.791715502738951 762.72432354092598 20.392261296510696 13.754877239465712 15.34134256839752 70.935138955712318 27.106244057416916 17.409956783056259 30.601123690605164 10.916668355464934 122.49848231673241 21.287085473537445 20.218992367386818 35.136576920747757 10.36907124519348 11.654551982879637
leaf_count=135 49 3691 4347 262 43 2345 92 58 314 44 79 174 308 127 42 3007 78 53 60 276 106 70 123 44 481 83 81 140 41 47
internal_value=0 0.0291404 -0.043343 0.0126903 -0.0457399 -0.0385558 0.0147641 0.00890097 0.0163738 0.00735087 0.00930015 0.0212805 0.018683 0.0306568 0.00819006 0.014259 0.0256028 0.0159675 0.0149311 0.019698 0.00878019 0.00680614 0.00477479 0.0126302 0.0108426 0.00363688 0.0112866 0.014073 -0.00693199 0.0104972
internal_weight=4198.15 2510.44 1687.7 1530.55 1613.75 583.013 1467.49 73.9562 1205.17 262.321 239.64 362.006 284.196 77.8095 21.4423 843.161 99.2262 59.7784 184.97 103.686 81.2835 32.7513 68.624 38.0229 228.913 71.2777 41.5061 157.635 29.7716 46.0235
internal_count=16800 9730 7070 6039 6777 2430 5777 293 4736 1041 949 1415 1114 301 85 3321 386 235 728 406 322 130 273 150 905 284 164 621 120 182
is_linear=0
shrinkage=0.03


Tree=2
num_leaves=31
num_cat=0
split_feature=12 19 11 1 11 16 13 12 8 7 7 21 3 8 11 3 8 13 2 7 12 13 10 3 4 20 10 10 9 3
split_gain=5551.9 1113.43 221.75 77.3875 64.0868 48.7852 29.8155 29.1887 16.1763 15.2548 13.4375 11.8838 11.1432 10.5445 10.23 9.50363 11.6666 8.84493 8.50144 8.1895 12.2366 7.82728 7.80481 7.56526 7.35023 14.2159 8.37956 8.32934 10.9273 6.69969
threshold=0.55605000000000016 1.0000000180025095e-35 0.53045000000000009 1.0000000180025095e-35 0.67785000000000006 1.0000000180025095e-35 0.26745000000000008 0.71495000000000009 0.6865500000000001 3.0197000000000007 6.9761500000000014 -0.98296299999999992 6.2342500000000003 0.59395000000000009 0.13990000000000005 5.2620500000000012 0.64455000000000007 0.32285000000000003 5.2872000000000012 3.7962500000000001 0.6462500000000001 0.18485000000000004 0.90525000000000011 2.9520000000000004 10.111900000000002 0.60355350000000019 0.81185000000000007 0.86305000000000009 0.83255000000000012 3.7614500000000004
decision_type=2 2 2 2 2 2 2 2 2 2 2 2 2 2 2 2 2 2 2 2 2 2 2 2 2 2 2 2 2 2
left_child=2 3 8 10 9 6 21 -6 -1 13 17 -11 14 -5 -12 16 -13 19 -14 -2 -21 -4 -22 -16 25 -25 -26 -28 -29 -19
right_child=1 -3 5 4 7 -7 -8 -9 -10 11 12 15 18 -15 23 -17 -18 29 -20 20 22 -23 -24 24 26 -27 27 28 -30 -31
leaf_value=0.015497954504408508 0.01294207891832991 0.053303516151106199 -0.039593470578143719 0.00045452877843312541 -0.03726887139249109 -0.048391683726025043 0.0065997219202157406 0.012364484311284491 -0.019893066272872999 -0.022226119747375272 0.038333190133892601 0.0079057940153382886 0.016365223373826024 -0.041095595972398147 0.020692789608970738 0.014111508696876329 -0.019488401784255753 0.034400401974979879 0.023971131121255221 -0.026416083460340318 0.01282418752121545 -0.026664997220190213 -0.0055622674243009079 -0.0071291187937512724 0.017107961167821085 0.021166603476716402 -0.0071091686840059395 0.032695879829982621 -0.0024822230561674539 0.013585362358452382
leaf_weight=59.758813351392746 80.644702032208443 977.64386454224586 519.54107096791267 12.249042019248011 52.294055223464966 1028.7818616628647 13.343513444066046 13.172526970505713 14.173246890306471 10.723476618528364 14.348737567663191 54.455807685852051 260.65742301940918 9.5630726367235166 79.531694203615189 149.04622505605221 18.593607753515244 16.359782204031944 283.06170393526554 13.374823793768881 44.634902074933052 49.423870906233788 38.29763488471508 49.6529171615839 140.87751433253288 23.289592102169991 31.035975977778435 15.292464211583139 15.964846998453138 103.04057729244232
leaf_count=235 318 3691 2173 49 218 4347 53 52 58 44 55 216 1024 40 311 587 76 63 1103 55 176 204 154 200 553 91 125 59 64 406
internal_value=2.6813e-07 0.0282974 -0.0421108 0.0123138 -0.000794472 -0.0444422 -0.0374453 -0.0272292 0.00863744 0.00600626 0.0157834 0.00826603 0.0175896 -0.0178339 0.0135342 0.00977046 0.000857893 0.0101964 0.0203378 0.00590195 0 -0.0384855 0.00430442 0.0125042 0.0101214 0.00189749 0.0130545 0.00381406 0.0147316 0.0165152
internal_weight=4192.83 2507.81 1685.02 1530.16 320.098 1611.09 582.308 65.4666 73.9321 254.631 1210.07 232.819 913.713 21.8121 369.994 222.096 73.0494 296.352 543.719 176.952 96.3074 568.965 82.9325 355.645 276.113 72.9425 203.171 62.2933 31.2573 119.4
internal_count=16800 9730 7070 6039 1282 6777 2430 270 293 1012 4757 923 3585 89 1458 879 292 1172 2127 703 385 2377 330 1403 1092 291 801 248 123 469
is_linear=0
shrinkage=0.03


Tree=3
num_leaves=31
num_cat=0
split_feature=12 19 11 18 16 18 1 9 1 7 10 20 10 3 4 11 3 13 2 11 10 3 11 2 13 13 7 20 2 13
split_gain=5235.7 1055.03 209.501 151.583 46.4406 49.7199 17.0424 12.5272 11.2128 10.3227 9.54818 8.91044 7.91446 6.86623 6.28617 6.17562 6.02934 6.61492 5.89468 6.18012 5.38794 5.21951 6.96716 8.99065 6.50439 5.15982 5.34344 8.10099 8.05883 7.26902
threshold=0.55605000000000016 1.0000000180025095e-35 0.53045000000000009 1.0000000180025095e-35 1.0000000180025095e-35 1.0000000180025095e-35 1.0000000180025095e-35 0.70040000000000013 1.0000000180025095e-35 3.1897500000000005 0.90525000000000011 0.78656600000000021 0.73855000000000015 7.2683500000000008 15.074500000000002 0.61925000000000008 8.7019500000000019 0.13785000000000003 1.0000000180025095e-35 0.20645000000000002 0.87325000000000008 5.2620500000000012 0.39440000000000003 5.3438500000000007 0.31665000000000004 0.51295000000000013 6.9761500000000014 0.78656600000000021 3.4519500000000005 0.26995000000000008
decision_type=2 2 2 2 2 2 2 2 2 2 2 2 2 2 2 2 2 2 2 2 2 2 2 2 2 2 2 2 2 2
left_child=2 3 8 6 5 15 7 11 10 -8 14 12 16 -13 -1 -4 17 -2 -9 20 -20 22 24 -24 -11 26 27 28 29 -21
right_child=1 -3 4 -5 -6 -7 9 18 -10 21 -12 13 -14 -15 -16 -17 -18 -19 19 25 -22 -23 23 -25 -26 -27 -28 -29 -30 -31
leaf_value=0.0054316556341885121 -0.0039179430926960107 0.051897582389792869 -0.0076809912579294103 -0.033565130010740962 -0.047084567577441852 -0.038109459947198845 -0.012267781306202898 -0.0011362072090295213 -0.011300780696171298 -0.021124640394925089 -0.010296907097587606 0.021189084222274716 0.0041443551508374282 0.039667001867983817 0.029473100384080429 0.024124521992023747 0.027054309958590136 0.018101245516602867 0.027779545858828854 0.0077578741302787987 0.010966536151281955 0.011792598727507615 0.023219628825126529 -0.0037244499075280817 0.0059759377577227263 0.026465732706430069 0.014352455098423932 -0.0023907626486590824 0.0082628291374931741 0.033475156822378158
leaf_weight=15.344737097620962 12.951246380805967 974.06198507547379 10.647737532854082 62.916781708598137 1025.6720986068249 559.78026799857616 22.672043144702911 23.98778709769249 19.013460218906403 16.858715087175373 10.378659620881079 44.537998005747795 35.184735834598541 33.154802411794662 29.169435679912567 10.788310110568998 69.797503665089607 166.04298803210258 50.524649187922478 17.156421408057213 27.598084598779678 164.13978636264801 22.313501223921776 21.659255117177963 14.586533591151236 24.97163088619709 472.75611701607704 46.415167897939682 154.45962053537369 24.902640268206596
leaf_count=61 52 3691 43 262 4347 2345 92 96 77 69 42 174 140 127 113 42 271 651 196 68 109 648 87 87 58 97 1861 186 612 96
internal_value=4.34914e-07 0.0274958 -0.0409523 0.0119497 -0.0432238 -0.0363918 0.0139085 0.0154198 0.00837969 0.00694947 0.0152672 0.0201125 0.0175984 0.0291945 0.0213141 0.00826243 0.0194842 0.0164887 0.0133981 0.0138277 0.0219216 0.00878945 0.00219982 0.00992334 -0.00850035 0.0129642 0.0124817 0.00882001 0.0114828 0.0231421
internal_weight=4184.44 2503.65 1680.79 1529.59 1606.89 581.216 1466.67 1204.44 73.9063 262.23 54.8928 361.669 283.976 77.6928 44.5142 21.436 248.792 178.994 842.772 818.784 78.1227 239.558 75.418 43.9728 31.4452 740.662 715.69 242.934 196.519 42.0591
internal_count=16800 9730 7070 6039 6777 2430 5777 4736 293 1041 216 1415 1114 301 174 85 974 703 3321 3225 305 949 301 174 127 2920 2823 962 776 164
is_linear=0
shrinkage=0.03


Tree=4
num_leaves=31
num_cat=0
split_feature=11 19 13 2 18 18 0 18 0 1 10 8 8 2 3 10 20 2 7 9 10 3 8 21 2 20 9 8 10 7
split_gain=4678.01 866.89 506.497 100.757 61.4111 53.6243 41.908 34.5111 24.1039 20.5857 14.0757 14.113 13.1448 16.8795 13.1277 10.0414 9.57761 8.26783 9.30433 9.49757 6.30959 6.10513 5.94017 9.78152 5.88169 5.81037 5.77808 7.43706 7.27049 6.33268
threshold=0.57235000000000014 1.0000000180025095e-35 0.18985000000000005 4.9263000000000012 1.0000000180025095e-35 1.0000000180025095e-35 1.0000000180025095e-35 1.0000000180025095e-35 1.0000000180025095e-35 1.0000000180025095e-35 0.71065000000000011 0.65615000000000012 0.66415000000000013 2.8364000000000007 6.1098500000000007 0.87180000000000013 0.78656600000000021 3.0649000000000002 11.416650000000002 0.74935000000000007 0.81745000000000012 9.977050000000002 0.42750000000000005 -0.91597549999999994 6.0603500000000006 0.78656600000000021 0.68985000000000007 0.55775000000000008 0.68295000000000006 14.312750000000001
decision_type=2 2 2 2 2 2 2 2 2 2 2 2 2 2 2 2 2 2 2 2 2 2 2 2 2 2 2 2 2 2
left_child=1 4 3 6 9 8 -2 -8 -4 10 25 -12 16 -14 24 -15 22 20 21 -20 -13 -19 -11 -24 -5 -1 27 -10 -29 -28
right_child=2 -3 5 14 -6 -7 7 -9 26 12 11 17 13 15 -16 -17 -18 18 19 -21 -22 -23 23 -25 -26 -27 29 28 -30 -31
leaf_value=0.019070676902103571 -0.046022144524009628 0.050593361940839125 -0.031525419050380747 -0.02962304184870302 -0.041882633756878028 -0.028237625291478666 0.002923875269287458 -0.037184929860447247 0.028078928458720662 -0.0090967363487812567 0.015623584700408165 0.0060036426797064309 -0.043503660698689176 0.012790037547802394 0.020361723962707953 -0.021801861805764666 0.022842574898871138 0.0058488323200665869 0.0062192190774733687 0.032043028346523617 -0.02119339587326537 -0.01738020185256927 -0.011437764876234196 0.011578002451325972 0.0023772637943333549 0.029730791094411228 0.010608587729896821 -0.004919376802353782 0.024380568580224221 -0.003260370882121286
leaf_weight=219.04528853297234 1003.4945399463177 969.27230361104012 12.861832201480864 9.6121107935905474 17.821888044476509 43.046201229095459 19.825441464781761 559.02109332382679 32.48392079770565 20.552783399820328 608.20716959238052 14.104168489575388 9.7314306795597059 22.05643005669117 22.229416638612747 11.22036376595497 36.905022278428078 66.458208963274956 27.203072279691696 24.858896315097809 16.142690062522888 11.786293953657148 19.248869806528091 110.90460881590843 10.534407585859297 61.181204825639725 124.22715657949448 17.914493247866634 12.844127625226973 38.395597636699677
leaf_count=858 4271 3691 54 40 75 179 79 2348 126 83 2391 56 41 87 87 46 144 264 108 96 66 48 78 438 42 237 491 72 50 154
internal_value=8.63259e-07 0.0291303 -0.0346301 -0.041069 0.0130881 0.00248907 -0.0422916 -0.0358055 0.00806112 0.0138625 0.0156483 0.0135325 0.00572019 -0.00917367 0.00449915 0.000976061 0.00915658 0.00558282 0.00887264 0.0186826 -0.0084567 0.00227611 0.00575944 0.00813878 -0.0128841 0.0214283 0.0103545 0.0180737 0.0072972 0.00731569
internal_weight=4173.19 2266.7 1906.49 1624.72 1297.43 281.773 1582.34 578.847 238.727 1279.61 1048.99 768.76 230.62 43.0082 42.3759 33.2768 187.611 160.553 130.306 52.062 30.2469 78.2445 150.706 130.153 20.1465 280.226 225.865 63.2425 30.7586 162.623
internal_count=16800 8807 7993 6867 5116 1126 6698 2427 947 5041 4124 3029 917 174 169 133 743 638 516 204 122 312 599 516 82 1095 893 248 122 645
is_linear=0
shrinkage=0.03


Tree=5
num_leaves=31
num_cat=0
split_feature=12 19 11 18 0 18 1 8 14 6 8 13 21 8 14 3 11 4 13 14 21 11 20 11 14 8 14 12 2 4
split_gain=4669.37 953.336 187.54 133.915 42.3937 44.2187 15.2742 14.6114 9.28467 8.20197 11.7356 9.45089 7.57219 6.95778 6.51268 7.79094 8.15179 9.82044 6.08949 7.71162 6.26843 5.7807 5.72045 5.53499 5.4874 5.45038 5.4065 7.64972 5.04877 5.00133
threshold=0.55605000000000016 1.0000000180025095e-35 0.53045000000000009 1.0000000180025095e-35 1.0000000180025095e-35 1.0000000180025095e-35 1.0000000180025095e-35 0.6865500000000001 0.86690000000000011 1.0000000180025095e-35 0.46535000000000004 0.040850000000000004 -0.98296299999999992 0.64995000000000014 0.20645000000000002 5.9998500000000012 0.48365000000000008 10.670000000000002 0.43235000000000007 0.9467000000000001 -0.78656599999999999 0.61925000000000008 0.78656600000000021 0.083900000000000016 0.81215000000000015 0.78545000000000009 0.41005000000000008 0.77475000000000016 5.8401500000000004 25.651150000000005
decision_type=2 2 2 2 2 2 2 2 2 2 2 2 2 2 2 2 2 2 2 2 2 2 2 2 2 2 2 2 2 2
left_child=2 3 7 6 -4 21 8 22 9 14 -11 -12 -8 -14 -2 16 17 -16 19 -10 -21 -6 -1 -13 -17 29 -15 28 -28 -7
right_child=1 -3 4 -5 5 25 12 -9 18 10 11 23 13 26 15 24 -18 -19 -20 20 -22 -23 -24 -25 -26 -27 27 -29 -30 -31
leaf_value=0.0091340294840858739 0.034633201086677064 0.049379904091245277 -0.0447140253039588 -0.031615384167339708 -0.0077606851782016468 -0.034806739146794829 -0.016753501130957572 -0.019276039185877142 0.027126521042339275 0.018919591510679908 -0.017957379653326985 0.031374072318596451 0.010160822889246524 -0.019020945349878214 -0.0077920948534852168 0.023540039092815095 -0.0067185845324599629 0.023294519979304287 0.036472803254007188 0.029643934515471249 0.0090216856173781189 0.023018001496177352 0.031348449877949242 0.010267533200061881 0.00055083557820145954 -0.040110073622453238 -0.022036687311051375 0.019696458473617281 0.005856467997718726 -0.021458824466878294
leaf_weight=45.968657657504082 21.298245802521706 963.39063605666161 1016.4129497855902 62.616527780890465 10.647604763507845 319.34845960140228 11.750543251633642 14.158976435661314 60.764516115188599 178.67274291813374 10.30737793445587 11.388141497969626 199.48351116478443 12.72641000151634 11.907733514904974 110.03132024407387 20.865192517638206 36.422705620527267 20.815639823675156 16.532495215535164 70.454126536846161 10.775930047035216 13.711354315280913 623.18220031261444 10.513602897524832 207.06142897903919 10.985226988792421 15.326886132359503 11.832488641142843 30.092919245362282
leaf_count=182 82 3691 4347 262 43 1344 48 58 236 700 42 44 789 52 48 429 84 142 80 64 279 42 53 2464 42 876 45 60 47 125
internal_value=8.37903e-07 0.026011 -0.0388396 0.0112695 -0.0410044 -0.0344618 0.0131082 0.0078475 0.0145401 0.0134629 0.0120943 0.0101933 0.00651787 0.0076346 0.0187728 0.0169421 0.00880798 0.015573 0.0211101 0.0188791 0.0130345 0.00765181 0.0143755 0.0106608 0.0215641 -0.0360906 -0.00221388 0.00338528 -0.00751671 -0.0336788
internal_weight=4159.45 2491.27 1668.18 1527.88 1594.34 577.926 1465.26 73.839 1203.16 1034.59 823.55 644.878 262.105 250.355 211.039 189.741 69.1956 48.3304 168.567 147.751 86.9866 21.4235 59.68 634.57 120.545 556.503 50.871 38.1446 22.8177 349.441
internal_count=16800 9730 7070 6039 6777 2430 5777 293 4736 4077 3250 2550 1041 993 827 745 274 190 659 579 343 85 235 2508 471 2345 204 152 92 1469
is_linear=0
shrinkage=0.03


Tree=6
num_leaves=31
num_cat=0
split_feature=12 19 13 18 0 18 8 1 9 7 21 9 20 10 3 3 13 14 14 3 7 20 4 15 10 9 21 13 12 12
split_gain=4412.83 909.353 148.83 126.246 44.6058 60.0091 18.8155 14.4027 11.1106 9.48559 10.9172 8.3891 8.17795 7.35373 6.54022 5.66364 6.16915 5.24865 7.08006 6.76615 8.46993 8.14389 9.7968 8.88845 7.7794 6.64096 5.49213 5.23636 5.23075 5.15348
threshold=0.55605000000000016 1.0000000180025095e-35 0.22395000000000001 1.0000000180025095e-35 1.0000000180025095e-35 1.0000000180025095e-35 0.74195000000000011 1.0000000180025095e-35 0.70040000000000013 3.1897500000000005 -0.98296299999999992 0.83695000000000008 0.78656600000000021 0.73855000000000015 7.2683500000000008 8.7019500000000019 0.13785000000000003 0.14495000000000002 0.011850000000000001 6.2342500000000003 6.5892000000000008 -0.60355349999999997 15.323750000000002 0.071850000000000011 0.97965000000000013 0.89205000000000012 0.60355350000000019 0.29155000000000003 0.77265000000000017 0.7894500000000001
decision_type=2 2 2 2 2 2 2 2 2 2 2 2 2 2 2 2 2 2 2 2 2 2 2 2 2 2 2 2 2 2
left_child=2 3 4 7 -1 -6 11 8 12 -9 -11 -4 13 15 -14 16 -2 18 -10 26 21 -21 23 27 25 -24 -19 -23 -27 -22
right_child=1 -3 6 -5 5 -7 -8 9 17 10 -12 -13 14 -15 -16 -17 -18 19 -20 20 29 22 24 -25 -26 28 -28 -29 -30 -31
leaf_value=-0.043633254733848083 -0.0046542675420993352 0.048247767744068422 0.017236793744436589 -0.030761630250213008 0.010385580774408017 -0.035248806537239455 -0.030777365325129147 -0.012100223179210879 0.0018520219783901375 -0.021171298224046821 0.0094895278865887774 -0.0063445903761832701 0.019453272982944081 0.0031652670919875008 0.037503445698973521 0.025296804994242198 0.016611655126747525 0.0052149606496290045 0.028477727516700163 0.018419446097493242 0.013229094847917377 -0.014114681068145131 0.0065416697098392247 -0.030961337039713144 -0.0047827380597822242 0.043571851655426375 0.014324117505343669 0.014141619721720787 0.01278166450713455 0.020745184747482669
leaf_weight=1010.0079134553671 12.942391365766523 956.52403464913368 43.770234331488609 62.432065472006798 27.033045172691345 547.98327705264091 11.938230007886885 22.663569822907448 12.283484444022177 10.710373654961584 228.66344675421715 19.292920917272568 44.409004390239716 35.1501544713974 32.96249070763588 69.574024453759193 165.70020523667336 204.02839577198029 36.36668136715889 45.16479879617691 209.2922644764185 10.84315872192383 28.217836141586304 11.62330976128578 22.900780156254768 10.761031925678255 85.348891705274582 12.449476316571234 10.150146394968031 142.18661198019981
leaf_count=4345 52 3691 172 262 107 2318 50 92 49 44 905 78 174 140 127 271 651 811 141 177 825 44 112 48 92 41 336 49 40 556
internal_value=1.07553e-06 0.025314 -0.0378629 0.01094 -0.0398168 -0.0330953 0.00338622 0.0127239 0.0141151 0.00632314 0.00808861 0.00997787 0.018541 0.0161326 0.0272587 0.0179528 0.0150507 0.0122105 0.0218516 0.0116098 0.0137202 0.00775286 0.00319423 -0.00976913 0.0095293 0.0162538 0.00792001 0.000851902 0.0290313 0.0162882
internal_weight=4143.37 2483.35 1660.03 1526.82 1585.02 575.016 75.0014 1464.39 1202.36 262.037 239.374 63.0632 360.738 283.367 77.3715 248.217 178.643 841.617 48.6502 792.967 503.589 152.111 106.946 34.9159 72.0298 49.129 289.377 23.2926 20.9112 351.479
internal_count=16800 9730 7070 6039 6770 2425 300 5777 4736 1041 949 250 1415 1114 301 974 703 3321 190 3131 1984 603 426 141 285 193 1147 93 81 1381
is_linear=0
shrinkage=0.03


Tree=7
num_leaves=31
num_cat=0
split_feature=12 19 11 18 16 18 1 8 10 7 21 8 2 3 11 15 8 8 15 11 2 10 7 7 14 2 20 11 8 8
split_gain=4172.85 868.95 169.571 119.048 39.2825 39.6514 13.5888 13.2871 10.302 8.93122 10.2877 8.74899 7.0036 6.82567 7.22341 7.09093 10.8429 8.92932 6.12604 5.79501 6.05302 5.46632 8.26565 6.46711 6.29399 8.79154 5.42009 5.40159 5.21555 5.07955
threshold=0.55605000000000016 1.0000000180025095e-35 0.53045000000000009 1.0000000180025095e-35 1.0000000180025095e-35 1.0000000180025095e-35 1.0000000180025095e-35 0.6865500000000001 0.71315000000000006 3.1897500000000005 -0.98296299999999992 0.46535000000000004 0.33120000000000005 7.9342000000000015 0.15215000000000004 0.14145000000000002 0.72835000000000016 0.70525000000000015 0.063650000000000026 0.22465000000000004 8.2069500000000009 0.87805000000000011 8.3310000000000013 18.552950000000003 0.35660000000000008 4.7060500000000003 0.78656600000000021 0.61925000000000008 0.78545000000000009 0.76945000000000008
decision_type=2 2 2 2 2 2 2 2 2 2 2 2 2 2 2 2 2 2 2 2 2 2 2 2 2 2 2 2 2 2
left_child=2 3 7 6 5 27 8 26 -2 -8 -11 19 -13 14 -14 17 -17 21 -19 -10 -21 22 -16 -24 -23 -26 -1 -4 -7 -18
right_child=1 -3 4 -5 -6 28 9 -9 11 10 -12 12 13 -15 15 16 29 18 -20 20 -22 24 23 -25 25 -27 -28 -29 -30 -31
leaf_value=0.008608064848608649 0.01826780362185642 0.047188742407004033 -0.0076972364271682709 -0.029942907900580632 -0.042612567907959947 -0.03188673435477879 -0.011743442418074609 -0.018403775433188389 0.034077010361719236 -0.020567352333425923 0.0092077634262095268 -0.0049985729928270651 0.026510333366654256 0.014889067626360504 0.020484438015461716 0.013201718912628781 -0.0232029966652837 0.031682358764854486 0.00092661828092972061 0.013389381312496573 0.029127616394335153 0.0073327388658306833 -0.0058953151190300956 0.016077022417944401 0.0053132956001239141 -0.028581527042659899 0.030254224978501019 0.022064590831777187 -0.038194282177936044 0.0044188914929750023
leaf_weight=45.928582549095154 327.27488744258881 948.77177250385284 10.646867945790293 62.223564222455025 1003.7210308164358 346.72326910495758 22.657717689871788 14.135972276329992 18.1526008695364 10.70015476644039 228.59800180792809 25.132118195295334 19.284144878387451 255.56715390086174 20.715436369180679 209.78048737347126 10.73892977833748 14.499322384595873 10.019874244928358 137.23205702006817 26.830606743693352 14.12395793199539 54.198175400495529 15.268502146005629 10.31917914748192 19.426281630992889 13.673085346817968 10.758651390671728 205.26734964549541 12.822809085249899
leaf_count=182 1285 3691 43 262 4347 1469 92 58 70 44 905 101 75 1006 81 827 44 56 40 541 104 56 218 60 41 80 53 42 876 51
internal_value=1.45721e-06 0.0246472 -0.0369348 0.0106219 -0.0390139 -0.0326966 0.0123527 0.00747875 0.0137049 0.00613415 0.00784779 0.0119892 0.0104327 0.0110202 0.00860228 0.00770039 0.0110294 0.002775 0.0193444 0.0178651 0.0160138 -0.000257649 0.00394363 -0.00099053 -0.00894098 -0.0167657 0.0137086 0.00718831 -0.0342507 -0.00813365
internal_weight=4125.19 2474.34 1650.85 1525.57 1577.12 573.396 1463.34 73.7376 1201.39 261.956 239.298 874.112 691.896 666.764 411.197 391.913 233.342 158.571 24.5192 182.215 164.063 134.052 90.1821 69.4667 43.8694 29.7455 59.6017 21.4055 551.991 23.5617
internal_count=16800 9730 7070 6039 6777 2430 5777 293 4736 1041 949 3451 2736 2635 1629 1554 922 632 96 715 645 536 359 278 177 121 235 85 2345 95
is_linear=0
shrinkage=0.03


Tree=8
num_leaves=31
num_cat=0
split_feature=12 19 11 18 0 18 1 8 7 3 2 7 14 20 2 8 4 8 11 3 3 14 2 3 11 3 10 7 10 12
split_gain=3948.07 831.772 161.192 112.283 37.9988 37.5944 12.8207 12.5252 9.95289 9.19329 8.90596 8.40968 8.18064 7.94435 7.96838 7.94148 7.71499 8.57209 6.82098 5.74189 7.22227 6.73761 5.73923 5.73157 6.95619 5.38604 5.37895 5.3059 9.10446 10.5765
threshold=0.55605000000000016 1.0000000180025095e-35 0.53045000000000009 1.0000000180025095e-35 1.0000000180025095e-35 1.0000000180025095e-35 1.0000000180025095e-35 0.6865500000000001 6.9761500000000014 6.4059000000000017 5.2872000000000012 3.1897500000000005 0.5031500000000001 0.78656600000000021 3.4519500000000005 0.66685000000000005 22.555750000000003 0.49275000000000008 0.13990000000000005 2.9520000000000004 3.6957500000000008 0.29765000000000003 7.4963500000000005 4.8151500000000009 0.51065000000000016 2.4726000000000004 0.90525000000000011 3.6615500000000005 0.96445000000000014 0.76995000000000013
decision_type=2 2 2 2 2 2 2 2 2 2 2 2 2 2 2 2 2 2 2 2 2 2 2 2 2 2 2 2 2 2
left_child=2 3 7 6 -4 -6 8 26 13 18 12 -8 -11 14 15 -2 17 -15 -10 25 21 -21 23 24 -22 -20 -1 -16 29 -29
right_child=1 -3 4 -5 5 -7 11 -9 9 10 -12 -13 -14 16 27 -17 -18 -19 19 20 22 -23 -24 -25 -26 -27 -28 28 -30 -31
leaf_value=0.017591284737978573 0.027146393534339595 0.046195652238739573 -0.041647014318523155 -0.029156583596799138 0.006977754415627921 -0.033386962130905064 -0.011397896390748062 -0.01787623569980067 0.030886656604227097 0.031801094851800181 0.021305023944416801 0.0076144378199685331 0.011684719559900778 0.012412064933582673 0.013686358899163566 0 0.012170777167737453 -0.020035705660991495 0.012849099171245283 0.0085936178468127063 0.027263091181166134 -0.015342961973788439 0.0026391886322294899 0.009611542311036253 0.0034080600145739047 0.030768399736796511 -0.0054117547129484056 -0.0015605374277830046 -0.01464700569958142 0.020087867493559414
leaf_weight=48.618922784924507 42.209651559591293 940.22577634453773 996.29824478924274 61.993489965796471 21.389857992529869 549.33785335719585 22.65045702457428 14.122642531991003 15.474831312894819 19.912615612149239 269.20074410736561 239.212656468153 227.39107000827789 10.141545400023459 78.153912201523781 12.758542895317076 22.041918009519577 24.491295769810677 57.765514135360718 21.702744528651237 42.468893349170685 20.175737589597702 63.943131625652313 133.62063625454903 15.313516661524771 21.1873399913311 10.931985959410666 46.942434206604958 20.19852739572525 35.260069027543068
leaf_count=191 164 3691 4347 262 85 2345 92 58 60 77 1054 949 899 40 308 51 87 100 228 86 165 82 255 529 61 82 44 188 82 138
internal_value=1.71886e-06 0.024007 -0.0360524 0.0103134 -0.0380915 -0.031867 0.0119926 0.00726253 0.0133069 0.0148618 0.0175043 0.00595103 0.013341 0.00845731 0.0108837 0.0209032 -0.0015762 -0.0104312 0.0113621 0.010535 0.00859466 -0.00288509 0.0104899 0.0130915 0.0210263 0.0177613 0.0133143 0.00779703 0.00325506 0.00771517
internal_weight=4105.14 2464.44 1640.7 1524.21 1567.03 570.728 1462.22 73.6736 1200.35 908.157 516.504 261.863 247.304 292.198 235.523 54.9682 56.6748 34.6328 391.652 376.178 297.225 41.8785 255.346 191.403 57.7824 78.9529 59.5509 180.555 102.401 82.2025
internal_count=16800 9730 7070 6039 6777 2430 5777 293 4736 3578 2030 1041 976 1158 931 215 227 140 1548 1488 1178 168 1010 755 226 310 235 716 408 326
is_linear=0
shrinkage=0.03


Tree=9
num_leaves=31
num_cat=0
split_feature=12 19 11 18 0 18 1 9 1 7 21 20 4 14 3 2 7 9 21 21 2 11 14 14 9 9 11 2 13 9
split_gain=3737.26 797.393 153.334 105.925 36.8571 35.6837 12.1013 9.86203 9.30624 7.92827 9.62656 7.81823 7.2122 6.73164 6.17727 5.86845 5.57431 5.53065 9.03532 6.76448 5.1755 5.30526 5.2979 7.38127 7.23412 5.13614 5.09777 5.09181 4.93908 7.98395
threshold=0.55605000000000016 1.0000000180025095e-35 0.53045000000000009 1.0000000180025095e-35 1.0000000180025095e-35 1.0000000180025095e-35 1.0000000180025095e-35 0.70040000000000013 1.0000000180025095e-35 3.0197000000000007 -0.98296299999999992 0.78656600000000021 10.802450000000002 0.69250000000000012 7.2683500000000008 7.6323000000000016 8.8500500000000013 0.61460000000000015 -0.60355349999999997 -0.78656599999999999 1.0000000180025095e-35 0.20645000000000002 0.42685000000000006 0.87325000000000008 0.86155000000000015 0.81315000000000015 0.61925000000000008 6.6453000000000015 0.29480000000000006 0.72055000000000013
decision_type=2 2 2 2 2 2 2 2 2 2 2 2 2 2 2 2 2 2 2 2 2 2 2 2 2 2 2 2 2 2
left_child=2 3 8 6 -4 26 7 11 12 -8 -11 13 -1 17 -13 -15 -14 19 27 -2 -9 22 -22 24 -24 -5 -6 -19 -23 -30
right_child=1 -3 4 25 5 -7 9 20 -10 10 -12 14 16 15 -16 -17 -18 18 -20 -21 21 28 23 -25 -26 -27 -28 -29 29 -31
leaf_value=-0.003857972999578243 0.0029572210745365023 0.045262208594336717 -0.040731422521988019 -0.0095160660572254138 -0.007676122894633642 -0.03255850609218857 -0.01204963321542598 -0.0024986305094458748 -0.01090439825567934 -0.02019978474960317 0.0086050585695678083 0.018060127275829542 0.003044164616421785 0.017245423669855427 0.035641781252528662 0.03568179502703283 0.027746572626638835 0.025308540737417534 0.00080974726455764986 0.023899453886338903 0.032378148758392004 0.0082561374881104654 0.015682440131408175 0.036324974611983626 -0.011381854252803802 -0.032512638430410849 0.021247822596402351 0.0021036216518386113 -0.00090478722405836517 0.014585526100012038
leaf_weight=15.403899267315863 19.794096365571022 930.9711819589138 988.25883805751801 11.290335178375242 10.646765649318697 546.46489645540714 20.399598628282547 23.945477157831192 18.943798273801804 10.69272944331169 230.69913513958454 44.244503423571587 12.27539376914501 78.233388841152191 32.70159313082695 20.173250913619995 26.981154665350914 28.74208776652813 73.275298818945885 49.693240106105804 20.144629403948784 370.46065948903561 35.00882326066494 10.903984472155569 11.598978638648985 50.453797861933708 10.739127337932585 12.52501007914543 32.458075061440468 335.31590826809406
leaf_count=62 79 3691 4347 47 43 2345 83 96 77 44 914 174 49 308 127 78 105 112 293 194 78 1469 138 42 47 215 42 50 130 1321
internal_value=2.18246e-06 0.0233921 -0.0352108 0.0100151 -0.0372122 -0.0310701 0.0116443 0.0129222 0.00704851 0.00577367 0.00730103 0.017101 0.0133422 0.0147464 0.0256441 0.02112 0.0201528 0.0113027 0.00718781 0.0180025 0.0111269 0.0115309 0.0190471 0.0142296 0.00886318 -0.0284003 0.00677162 0.0183821 0.0107313 0.0132105
internal_weight=4083.44 2453.73 1629.71 1522.75 1556.11 567.851 1461.01 1199.22 73.6042 261.791 241.392 359.382 54.6604 282.436 76.9461 98.4066 39.2565 184.03 114.542 69.4873 839.837 815.891 77.6564 57.5118 46.6078 61.7441 21.3859 41.2671 738.235 367.774
internal_count=16800 9730 7070 6039 6777 2430 5777 4736 293 1041 958 1415 216 1114 301 386 154 728 455 273 3321 3225 305 227 185 262 85 162 2920 1451
is_linear=0
shrinkage=0.03


Tree=10
num_leaves=31
num_cat=0
split_feature=12 19 13 18 0 18 8 10 3 14 2 8 13 4 14 10 9 12 12 2 14 8 8 2 21 14 8 15 14 3
split_gain=3539.29 765.501 123.446 99.9615 38.9588 48.8961 15.5072 10.4157 8.18195 12.873 9.42434 8.15027 8.2128 9.01647 7.58822 10.9358 7.07864 6.84257 14.5942 10.7257 6.80167 5.44749 8.47772 5.76077 6.12262 5.43445 9.88627 6.44778 10.1417 6.08127
threshold=0.55605000000000016 1.0000000180025095e-35 0.22395000000000001 1.0000000180025095e-35 1.0000000180025095e-35 1.0000000180025095e-35 0.74195000000000011 0.7470500000000001 6.5235500000000011 0.50935000000000008 7.432100000000001 0.46535000000000004 0.42730000000000007 28.339950000000005 0.67125000000000012 0.82725000000000015 0.83695000000000008 0.70610000000000006 0.61475000000000013 0.53460000000000008 0.42685000000000006 0.36180000000000007 0.32305000000000006 5.2343000000000002 -0.37940949999999996 0.30145000000000005 0.60245000000000015 0.30715000000000003 0.57355000000000012 9.977050000000002
decision_type=2 2 2 2 2 2 2 2 2 2 2 2 2 2 2 2 2 2 2 2 2 2 2 2 2 2 2 2 2 2
left_child=2 3 4 7 -1 -6 16 8 -2 -10 -11 21 17 14 15 -14 -4 18 -13 -19 -17 22 -9 -23 -25 26 -21 28 -27 -30
right_child=1 -3 6 -5 5 -7 -8 11 9 10 -12 12 13 -15 -16 20 -18 19 -20 25 -22 23 -24 24 -26 27 -28 -29 29 -31
leaf_value=-0.039863503395240286 0.01043158343725983 0.044382881512021237 0.01589848124667026 -0.02767517895924174 0.009375751615908515 -0.031879760314633597 -0.028011725020314834 0.019245451653299155 0.039196517403477502 0.01295560082983829 0.026044905544402353 0.015521289065210208 0.019222250388987269 0.029570076316776921 0.022235769129582077 0.0057544950690267783 -0.0057945652249143456 -0.01542229211682321 -0.0031157256102568708 0.0060289374804136592 -0.025796530963515103 0.023971215483777453 -0.0063423300660781457 0.0011194400135994377 0.018218040761768996 -0.00073473199305995151 0.029738209617617146 0.017703752104346215 0.014275227390284686 0.002198336205746066
leaf_weight=979.26663437485695 239.82751928269863 921.08655419945717 43.597130283713341 61.47691023349762 26.962010532617569 537.16272446513176 11.768390625715254 21.669393926858902 23.66275243461132 213.03271472454071 65.747885704040527 51.327822461724281 18.367816552519798 30.152687013149261 26.856211289763451 11.068965688347818 19.224564895033836 15.742583170533178 141.48140339553356 32.943704068660736 13.131475701928137 68.927147567272186 24.55537885427475 30.008672416210175 52.434221968054771 112.14983481168747 31.210417747497559 53.460453540086746 127.83837394416332 54.085068985819817
leaf_count=4345 950 3691 172 262 107 2318 50 85 91 843 257 202 72 117 105 44 78 64 568 131 54 269 99 120 206 449 121 210 504 216
internal_value=2.60663e-06 0.0228007 -0.0344064 0.0097262 -0.036228 -0.0299 0.00324235 0.011307 0.0146153 0.0179138 0.0160698 0.00934555 0.00785112 0.0158654 0.00980219 0.00182043 0.0092151 0.00655493 0.00184104 0.00867244 -0.0113137 0.014761 0.0056194 0.0175217 0.0120483 0.00960812 0.0176665 0.00810263 0.00633617 0.0107076
internal_weight=4060.23 2442.25 1617.98 1521.16 1543.39 564.125 74.5901 1459.68 542.271 302.443 278.781 917.412 719.817 99.5772 69.4245 42.5683 62.8217 620.24 192.809 427.43 24.2004 197.595 46.2248 151.37 82.4429 411.688 64.1541 347.534 294.073 181.923
internal_count=16800 9730 7070 6039 6770 2425 300 5777 2141 1191 1100 3636 2857 392 275 170 250 2465 770 1695 98 779 184 595 326 1631 252 1379 1169 720
is_linear=0
shrinkage=0.03


Tree=11
num_leaves=31
num_cat=0
split_feature=12 13 11 18 8 16 18 11 10 8 8 1 11 2 10 13 12 13 3 14 11 11 13 9 13 8 8 8 12 3
split_gain=3353.16 628.964 139.651 99.9985 40.0653 34.8314 32.1562 25.3003 18.0517 11.281 8.76964 8.49885 7.63009 6.55934 6.44784 8.74294 6.66354 6.39605 5.8273 7.77632 8.19552 6.63408 8.52726 5.79871 5.78574 8.35083 8.35189 8.91066 7.78326 5.2503
threshold=0.55605000000000016 0.51295000000000013 0.53045000000000009 1.0000000180025095e-35 0.29310000000000008 1.0000000180025095e-35 1.0000000180025095e-35 0.40195000000000008 0.73315000000000008 0.6865500000000001 0.56905000000000017 1.0000000180025095e-35 0.18700000000000003 1.0000000180025095e-35 0.71315000000000006 0.25445000000000007 0.74385000000000012 0.42730000000000007 7.9342000000000015 0.75355000000000005 0.17375000000000004 0.25405000000000005 0.31955000000000006 0.68525000000000014 0.29155000000000003 0.64995000000000014 0.60835000000000006 0.56905000000000017 0.82135000000000014 6.7308000000000012
decision_type=2 2 2 2 2 2 2 2 2 2 2 2 2 2 2 2 2 2 2 2 2 2 2 2 2 2 2 2 2 2
left_child=2 3 9 4 -2 6 -4 -3 10 -1 12 13 -6 -10 15 -12 -16 29 19 20 -15 22 -22 -23 28 26 27 -26 -13 -14
right_child=1 7 5 -5 8 -7 -8 -9 11 -11 14 24 17 18 16 -17 -18 -19 -20 -21 21 23 -24 -25 25 -27 -28 -29 -30 -31
leaf_value=0.012467393514536476 0.038146115826133593 0.043138264683303652 0.0063564906977035202 -0.026972658256687564 0.033849757473556875 -0.0390329653486488 -0.031005484800544471 0.016292815251522732 -0.006323909780957441 -0.017170654773426101 0.0043031275685588193 0.002062353203206723 0.010549010612674829 0.024963415016822661 -0.010892849297689064 0.018521985216866172 0.013644055576611667 0.030703993245046857 0.013926312662042804 -0.016439542665845977 -0.013800030601143523 -0.0098226468312923206 0.014287299648220725 0.0099113522236130899 0.0024650430327956027 -0.022962740049877823 0.024723120219539627 -0.028065879522593557 0.022175414372565063 0.020254069067068472
leaf_weight=59.392624601721764 51.211225390434265 865.59028653800488 21.357556164264679 61.195263937115669 30.159401848912239 970.60290512442589 540.16843189299107 33.502023488283157 21.112791046500206 14.084655880928038 59.331241309642792 59.094729825854301 97.389691919088364 27.300382390618324 21.459675535559654 117.32623356580734 18.23097650706768 30.033139705657959 281.4750419408083 10.798509702086447 26.095067292451859 13.592587649822233 15.182828545570372 374.45920306444168 44.346813812851906 15.340882688760756 11.298268690705298 10.433005005121229 24.560353115200996 109.71231938898563
leaf_count=235 205 3505 85 262 120 4347 2345 133 85 58 237 236 386 107 87 462 72 118 1112 44 106 55 60 1483 177 63 44 43 96 432
internal_value=3.12977e-06 0.02223 -0.0336361 0.0105299 0.0120966 -0.0355737 -0.0295773 0.0421451 0.011149 0.00671425 0.0158628 0.00870486 0.0195166 0.0100302 0.0113209 0.0137737 0.000314301 0.017654 0.0104968 0.00842014 0.00902154 0.00798968 -0.00337755 0.00920768 0.00249982 -0.00316352 0.00144329 -0.00337605 0.00804194 0.0157193
internal_weight=4035.84 2430.23 1605.61 1531.14 1469.94 1532.13 561.526 899.092 1418.73 73.4773 483.643 935.09 267.295 770.016 216.348 176.657 39.6907 237.135 748.904 467.429 456.63 429.33 41.2779 388.052 165.074 81.419 66.0781 54.7798 83.6551 207.102
internal_count=16800 9730 7070 6092 5830 6777 2430 3638 5625 293 1914 3711 1056 3052 858 699 159 936 2967 1855 1811 1704 166 1538 659 327 264 220 332 818
is_linear=0
shrinkage=0.03


Tree=12
num_leaves=31
num_cat=0
split_feature=12 13 18 11 0 11 9 18 3 11 7 20 2 11 4 12 1 4 13 2 1 3 4 13 4 11 21 13 14 7
split_gain=3178.71 631.677 131.821 87.1623 29.9571 23.5024 22.7326 18.924 16.3657 11.6648 9.31872 12.0438 12.0346 9.61985 8.81747 9.80528 8.23908 8.22537 8.14837 10.9222 8.49405 7.75284 7.17796 8.79854 6.72328 6.62601 6.69307 6.62243 6.04657 7.23991
threshold=0.53525000000000011 0.51295000000000013 1.0000000180025095e-35 0.53045000000000009 1.0000000180025095e-35 0.40195000000000008 0.62525000000000008 1.0000000180025095e-35 12.014050000000001 0.059750000000000004 6.9761500000000014 0.78656600000000021 4.7060500000000003 0.18700000000000003 22.555750000000003 0.72515000000000007 1.0000000180025095e-35 55.041900000000005 0.42730000000000007 9.1272000000000002 1.0000000180025095e-35 6.2342500000000003 6.2679000000000009 0.35315000000000007 16.181650000000001 0.12495000000000002 -0.78656599999999999 0.42730000000000007 0.47285000000000005 14.700100000000001
decision_type=2 2 2 2 2 2 2 2 2 2 2 2 2 2 2 2 2 2 2 2 2 2 2 2 2 2 2 2 2 2
left_child=3 2 6 16 -5 -3 17 -6 9 -8 11 12 -11 -12 15 -13 -1 25 19 20 -15 28 -22 24 -24 -2 -27 -10 29 -20
right_child=1 5 -4 4 7 -7 8 -9 27 10 13 14 -14 18 -16 -17 -18 -19 21 -21 22 -23 23 -25 -26 26 -28 -29 -30 -31
leaf_value=0.011722350778799993 0.036905719025276416 0.042324486493003736 -0.027423568265761214 -0.038242068318365643 0.0036581476890207689 0.016694740394123778 0.032974886723456324 -0.030259792087355297 0.020555281086844616 0.015625686122401724 0.022272834158398539 -0.034423415834850618 0.0023716471419470003 0.0091818808186542866 0.0076237944126646157 -0.0033292716537629803 -0.014043701863644776 0.043214529467971746 0.00093607433967457857 0.020508579315764282 0.01449271511764403 0.025825229992637647 -0.012931974955625087 -0.020959235557118077 0.0068969746392446123 0.0065681223321554117 0.020458568682937599 0.047097062830108588 -0.012054078133146 0.031669807924684448
leaf_weight=37.329108044505119 17.550498157739639 856.23496097326279 81.279376611113548 961.10402421653271 15.037395209074019 34.229310244321823 18.582258805632591 516.62477657198906 52.758967041969299 100.20954063534737 60.258195206522942 15.429690077900885 161.70228646695614 535.88863518834114 21.907724022865295 22.643516376614571 15.637808635830877 13.856977418065069 15.470922514796259 64.67060025036335 25.389559835195541 52.345702439546585 21.197103127837181 20.050902843475342 54.373147308826447 40.981256514787674 144.86095927655697 10.428801417350767 9.8516250401735288 12.58009661734104
leaf_count=148 71 3508 351 4347 60 136 73 2257 208 395 238 64 646 2128 87 91 64 56 62 254 100 205 86 82 216 164 573 41 40 49
internal_value=3.44845e-06 0.0211547 0.00972766 -0.0337195 -0.0350614 0.0413466 0.0117556 -0.0292938 0.0102204 0.00943754 0.00906324 0.00468004 0.00746225 0.0106762 -0.00740326 -0.016123 0.00403461 0.0207394 0.00980651 0.00873105 0.00756111 0.0183337 0.000355592 -0.00338924 0.001276 0.0191525 0.017422 0.025118 0.00782752 0.0149521
internal_weight=4010.47 2464.73 1574.27 1545.73 1492.77 890.464 1492.99 531.662 1275.74 1212.55 1193.97 321.893 261.912 872.076 59.9809 38.0732 52.9669 217.25 811.818 721.57 656.899 90.2483 121.011 95.6212 75.5703 203.393 185.842 63.1878 37.9026 28.051
internal_count=16800 9924 6280 6876 6664 3644 5929 2317 5065 4816 4743 1283 1041 3460 242 155 212 864 3222 2866 2612 356 484 384 302 808 737 249 151 111
is_linear=0
shrinkage=0.03


Tree=13
num_leaves=31
num_cat=0
split_feature=12 19 18 11 0 18 1 10 8 9 2 12 1 3 11 2 3 10 10 3 13 11 9 20 15 10 11 21 9 8
split_gain=3013.95 712.259 117.592 83.2881 29.3096 18.0214 9.79937 8.31635 8.86504 8.06536 8.38 8.76382 7.7621 7.43619 7.57618 7.34354 7.68393 7.61638 8.69385 8.189 7.13871 6.70762 6.66081 6.43691 6.42902 8.11427 5.94083 5.84558 6.94153 5.62245
threshold=0.53525000000000011 1.0000000180025095e-35 1.0000000180025095e-35 0.53045000000000009 1.0000000180025095e-35 1.0000000180025095e-35 1.0000000180025095e-35 0.87505000000000011 0.5827500000000001 0.62860000000000016 3.0649000000000002 0.68215000000000015 1.0000000180025095e-35 6.5615000000000014 0.18700000000000003 7.2999500000000008 6.8249000000000004 0.81745000000000012 0.78985000000000005 8.6410500000000017 0.27615000000000006 0.16295000000000001 0.72985000000000011 0.78656600000000021 0.084250000000000005 0.76985000000000015 0.85035000000000005 -0.98296299999999992 0.94905000000000006 0.78355000000000008
decision_type=2 2 2 2 2 2 2 2 2 2 2 2 2 2 2 2 2 2 2 2 2 2 2 2 2 2 2 2 2 2
left_child=3 2 6 12 -5 -6 7 8 13 -10 11 -11 -1 14 -2 16 -15 18 -18 -20 -16 -12 -13 -9 25 -22 -4 -8 -29 -7
right_child=1 -3 26 4 5 29 27 23 9 10 21 22 -14 15 20 -17 17 -19 19 -21 24 -23 -24 -25 -26 -27 -28 28 -30 -31
leaf_value=0.011381782202031711 0.032537863163439214 0.042068497597564362 -0.02185492851462599 -0.037485812007546103 0.0035502565694444182 -0.027006713043319794 -0.015356792926206128 0.0094041762218633196 0.018839050469351123 -0.022786497024538981 0.029490473569317069 0.016535597155767939 -0.013631400659407452 0.036846013587299296 0.0034089270424461048 0.027585341723203639 0.014277604720752521 0.025909620296380158 -0.023392516984526896 0.012601644930280249 -0.009928499711813716 0.0085523006097210901 -0.0070273224617761702 -0.0013183159066452756 0.018747147397753249 0.019259611434319035 -0.041159172270075428 0.0072895760518974402 -0.014260248398014468 -0.033704280547239028
leaf_weight=37.299137383699417 14.346150249242781 889.05146789550781 60.873214527964592 951.23267135024071 15.035650536417959 319.73438653349876 11.722551703453062 251.77857930958271 68.852585554122925 14.605128347873686 14.584186136722563 20.022497594356537 15.633583441376684 15.019433751702307 88.157485395669937 66.858958721160889 140.20345430076122 42.256432205438614 11.422971546649935 10.85894852876663 18.507498845458031 246.01207481324673 22.795221835374832 62.334413066506386 91.489243164658546 15.549737513065336 19.965970814228058 240.46208474040031 13.978931263089178 193.48974844813347
leaf_count=148 56 3691 263 4347 60 1401 48 999 272 60 57 79 64 58 352 262 556 165 47 43 75 978 92 250 360 61 88 955 57 856
internal_value=4.01535e-06 0.0206332 0.00843214 -0.0329968 -0.0343198 -0.028601 0.0103568 0.0115005 0.0129702 0.00950986 0.00747005 -0.00285583 0.00391422 0.0155607 0.0114655 0.0187983 0.0160887 0.0145169 0.0115075 -0.0057615 0.0100078 0.00975732 0.00394712 0.00726731 0.0146048 0.00334517 -0.0267496 0.00511721 0.00608358 -0.0295497
internal_weight=3984.13 2451.71 1562.66 1532.43 1479.49 528.26 1481.82 1215.66 901.542 386.872 318.019 57.4228 52.9327 514.67 228.05 286.62 219.761 204.742 162.485 22.2819 213.704 260.596 42.8177 314.113 125.546 34.0572 80.8392 266.164 254.441 513.224
internal_count=16800 9924 6233 6876 6664 2317 5882 4822 3573 1538 1266 231 212 2035 904 1131 869 811 646 90 848 1035 171 1249 496 136 351 1060 1012 2257
is_linear=0
shrinkage=0.03


Tree=14
num_leaves=31
num_cat=0
split_feature=12 19 18 11 0 18 1 7 3 7 21 1 13 14 4 11 4 20 13 21 7 7 3 11 8 9 8 11 13 4
split_gain=2858.75 686.426 111.073 79.6386 28.7116 17.1709 9.25617 8.77334 7.82831 7.65539 8.83924 7.31319 6.96667 6.48465 7.00613 5.91414 6.18275 9.45081 9.48212 8.24143 8.34875 6.89344 5.82918 5.70677 5.44032 5.48308 5.41618 5.14417 5.12604 6.40353
threshold=0.53525000000000011 1.0000000180025095e-35 1.0000000180025095e-35 0.53045000000000009 1.0000000180025095e-35 1.0000000180025095e-35 1.0000000180025095e-35 6.9761500000000014 6.5615000000000014 3.1897500000000005 -0.98296299999999992 1.0000000180025095e-35 0.31335000000000007 0.27015000000000006 29.092550000000006 0.17005000000000003 30.504850000000005 -0.78656599999999999 0.26995000000000008 -0.98296299999999992 7.9884000000000013 14.181650000000003 5.4046000000000012 0.85035000000000005 0.5827500000000001 0.62860000000000016 0.78355000000000008 0.40595000000000009 0.29480000000000006 20.710050000000003
decision_type=2 2 2 2 2 2 2 2 2 2 2 2 2 2 2 2 2 2 2 2 2 2 2 2 2 2 2 2 2 2
left_child=3 2 6 11 -5 -6 7 12 15 -8 -11 -1 -2 -14 -15 -9 19 18 -18 -17 -21 22 28 -4 -10 -26 -7 -24 29 -22
right_child=1 -3 23 4 5 26 9 8 24 10 -12 -13 13 14 -16 16 17 -19 -20 20 21 -23 27 -25 25 -27 -28 -29 -30 -31
leaf_value=0.011051572012811749 0.002555965143643132 0.041359530039851003 -0.021299756019373714 -0.036761319452851271 0.0034455580579270464 -0.026362293012060743 -0.011323903177948229 0.02424266132745654 0.017840683827873294 -0.019815161701252849 0.007796332244813838 -0.013232325786993914 0.030810582694027193 0.0047700871925472716 0.021426176773983778 -0.018062716446294362 -0.024500078082637756 0.019356284929464698 0.013744774669086628 0.027479954672515863 -0.012974491249121839 0.010230306499609767 0.0045830865596222453 -0.040295555420782725 0.022575562895074994 0.0093373129559563492 -0.032960445760183817 -0.018480556886549915 0.01282899699357796 0.013446340914632097
leaf_weight=37.267647922039032 166.25389410555363 877.34318912029266 60.595515236258507 941.03877151012421 15.03386242687702 317.75870749354362 23.364143267273903 23.291706785559654 290.41372589766979 10.681429490447043 231.99825294315815 15.628040015697477 14.421148315072058 82.977272644639015 31.582235664129257 11.753420308232306 9.7288227975368518 85.411456987261772 13.903670430183409 17.230107128620148 21.923892453312874 144.04034779965878 13.805760756134985 19.789026394486427 33.902860283851624 180.94347773492336 191.94856621325016 22.28405550122261 37.401609152555466 12.910151585936545
leaf_count=148 664 3691 263 4347 60 1401 95 92 1149 44 921 64 56 331 124 48 40 336 55 67 89 572 55 88 134 720 856 91 148 51
internal_value=4.2069e-06 0.0201309 0.00819085 -0.0323018 -0.0336069 -0.0279325 0.0100584 0.0111711 0.0126207 0.00496477 0.00655336 0.00379757 0.00664334 0.0118766 0.00941739 0.00953213 0.00863483 0.0147167 -0.00194714 0.00625819 0.00734222 0.00593478 0.000187053 -0.0261018 0.0151387 0.0114593 -0.0288649 -0.00959851 0.00513046 -0.00307594
internal_weight=3956.63 2437.95 1560.61 1518.68 1465.78 524.741 1480.22 1214.18 918.945 266.044 242.68 52.8957 295.235 128.981 114.56 413.685 390.393 109.044 23.6325 281.349 269.596 252.366 108.325 80.3845 505.26 214.846 509.707 36.0898 72.2357 34.834
internal_count=16800 9924 6233 6876 6664 2317 5882 4822 3647 1060 965 212 1175 511 455 1644 1552 431 95 1121 1073 1006 434 351 2003 854 2257 146 288 140
is_linear=0
shrinkage=0.03


Tree=15
num_leaves=31
num_cat=0
split_feature=12 19 18 11 0 18 8 10 8 10 3 21 4 7 11 7 20 13 14 20 9 12 4 7 14 20 9 10 13 11
split_gain=2712.35 662.101 104.93 76.1943 28.1605 16.3678 8.90278 14.326 7.65479 9.91556 6.89548 7.42073 7.99931 6.81424 8.94075 9.86 9.11136 7.51684 6.8523 6.58703 10.1012 6.4637 6.16606 5.79513 5.64746 6.49954 5.9501 5.64125 7.5205 5.49174
threshold=0.53525000000000011 1.0000000180025095e-35 1.0000000180025095e-35 0.53045000000000009 1.0000000180025095e-35 1.0000000180025095e-35 0.65615000000000012 0.60575000000000012 0.67885000000000006 0.89595000000000014 6.5235500000000011 -0.98296299999999992 21.221500000000002 6.5215000000000005 0.57235000000000014 3.3988000000000005 -0.60355349999999997 0.41855000000000003 0.52755000000000007 0.78656600000000021 0.83865000000000012 0.48350000000000004 7.9917000000000007 5.8117500000000009 0.19535000000000002 0.37940950000000007 0.95905000000000007 0.74465000000000015 0.32935000000000009 0.85035000000000005
decision_type=2 2 2 2 2 2 2 2 2 2 2 2 2 2 2 2 2 2 2 2 2 2 2 2 2 2 2 2 2 2
left_child=3 2 6 19 -5 -6 10 -8 -9 -10 11 12 -2 14 16 -16 -12 23 27 20 21 -1 -11 -18 25 -13 -26 -15 -29 -4
right_child=1 -3 29 4 5 -7 7 8 9 22 13 24 -14 18 15 -17 17 -19 -20 -21 -22 -23 -24 -25 26 -27 -28 28 -30 -31
leaf_value=-0.0084906449202418379 -0.026612685578186551 0.040685151940198588 -0.020760857825055181 -0.03606599599456916 0.0033439543291918861 -0.028202875109627653 0.02668138157584566 -0.0059432160769625868 0.0093356351828330093 0.014683190631110869 0.024117787620163551 0.0095564340041476691 0.0078301867930073484 0.035883111039290913 0.012527468620582663 -0.02350573900673892 0.0049217915291514145 0.025301906527565789 0.013472776950597691 0.024499880903192425 -0.024960429787035308 0.019274461351735859 -0.011264649591195143 -0.019033578697648278 0.0084752773206531254 0.026575996376025642 -0.0084566849555477892 -0.00050954405086800351 0.031388056566943913 -0.039473599036049849
leaf_weight=12.797412782907488 10.9035851508379 865.31450916826725 60.312877744436264 930.56850828230381 15.032037168741224 506.09203970432281 25.480741053819656 62.918048769235611 170.27308785915375 10.139260455965994 32.74714657664299 54.07894267141819 13.04178526997566 23.881417229771614 11.630498468875887 15.831304699182509 52.674515023827553 13.532319709658621 461.64072090387344 10.692602902650831 11.821059033274649 17.545052915811539 39.43536102771759 10.763542219996451 390.98290111124516 33.276521176099777 19.283862441778183 13.192189708352091 12.844794437289236 19.602052986621857
leaf_count=52 45 3691 263 4347 60 2257 100 254 677 40 128 215 52 93 46 65 210 53 1834 42 49 69 160 44 1555 130 78 53 50 88
internal_value=4.37003e-06 0.0196448 0.00795689 -0.0316322 -0.0329205 -0.0272862 0.00976911 0.0052096 0.00324663 0.00589331 0.0109664 0.00837574 -0.00781974 0.0130413 0.00704623 -0.00815643 0.0108866 0.00517058 0.0146397 0.00368452 -0.00161415 0.00748695 -0.00585972 0.000763095 0.00916391 0.0161199 0.00766838 0.025275 0.0152314 -0.0254754
internal_weight=3928.33 2423.78 1558.47 1504.55 1451.69 521.124 1478.55 308.246 282.766 219.848 1170.31 521.568 23.9454 648.738 137.179 27.4618 109.718 76.9704 511.559 52.8561 42.1635 30.3425 49.5746 63.4381 497.622 87.3555 410.267 49.9184 26.037 79.9149
internal_count=16800 9924 6233 6876 6664 2317 5882 1231 1131 877 4651 2075 97 2576 546 111 435 307 2030 212 170 121 200 254 1978 345 1633 196 103 351
is_linear=0
shrinkage=0.03


Tree=16
num_leaves=31
num_cat=0
split_feature=12 19 18 13 0 18 1 3 1 7 7 3 2 20 2 8 4 8 15 9 10 12 13 4 12 3 4 7 20 13
split_gain=2574.06 639.188 99.1364 59.9971 27.1467 30.7679 14.4015 9.16312 8.73311 7.85344 7.07961 7.06886 8.42421 6.86207 8.02578 7.28039 6.87652 7.96218 6.4819 6.34193 9.21476 10.3332 6.83582 5.98753 5.86135 5.7565 5.55176 9.03582 8.41779 9.84471
threshold=0.53525000000000011 1.0000000180025095e-35 1.0000000180025095e-35 0.18985000000000005 1.0000000180025095e-35 1.0000000180025095e-35 1.0000000180025095e-35 4.6852500000000008 1.0000000180025095e-35 6.9761500000000014 3.0197000000000007 6.5615000000000014 4.9783000000000008 0.78656600000000021 3.4519500000000005 0.66685000000000005 22.555750000000003 0.49275000000000008 0.038950000000000005 0.91735000000000011 0.96445000000000014 0.7571500000000001 0.23070000000000004 39.468350000000008 0.85535000000000017 6.4059000000000017 30.504850000000005 7.7277000000000013 -0.78656599999999999 0.26105000000000006
decision_type=2 2 2 2 2 2 2 2 2 2 2 2 2 2 2 2 2 2 2 2 2 2 2 2 2 2 2 2 2 2
left_child=3 2 8 4 -1 -6 7 -5 9 13 -10 26 -13 14 15 -2 17 -15 -8 20 21 22 -16 -14 -23 -9 27 -11 29 -28
right_child=1 -3 -4 6 5 -7 18 25 10 11 -12 12 23 16 19 -17 -18 -19 -20 -21 -22 24 -24 -25 -26 -27 28 -29 -30 -31
leaf_value=-0.03560948634665817 0.024580360331088909 0.040042551332201796 -0.02486904715402799 -0.017492743699673814 0.013356888158746222 -0.028177820139354527 0.00014795648830886034 0.030146857365698106 -0.012008099420173036 0.028901158226740841 0.0059867452745692978 0.0098516147521714326 0.019260905725929225 0.0107478277250021 -0.020759563592502681 -0.0010640234302491676 0.0099910724085643474 -0.020521058001049412 -0.024883164165409252 0.011835607961912582 -0.021951148042755411 0.023563658287982795 0.0027522371052943772 0.0050863223999460649 -0.00035181665408862844 0.0034919904787049385 -0.024152602024829942 0.0055613089003832446 0.018798003393269518 0.014552400554023648
leaf_weight=909.58455441892147 42.107856914401054 853.01452462375164 79.432472586631775 11.442623376846312 16.404989391565323 472.58292281627655 12.169156506657599 11.665486574172975 21.112243577837944 15.664463117718695 244.60742990672588 217.76415224373341 254.88270162045956 10.098910018801687 16.376149639487267 12.722559645771979 21.908590123057365 24.70269763469696 36.371099606156349 79.554930329322815 13.917237892746924 26.547017112374306 33.251167982816696 30.828377336263657 13.69525310397148 19.871233657002449 9.7318297028541583 282.13836805522442 90.946274876594543 14.39648127555847
leaf_count=4299 165 3691 351 48 65 2124 53 46 86 61 974 869 1010 40 67 51 87 101 161 315 57 104 133 124 55 80 40 1127 359 57
internal_value=4.59521e-06 0.0191729 0.00772924 -0.030986 -0.0325265 -0.0267734 -0.00739253 0.00519078 0.00948758 0.0105701 0.00453776 0.0119446 0.0143431 0.0062834 0.00851849 0.0185932 -0.00304779 -0.011352 -0.0185714 0.00547221 0.000552294 0.0041115 -0.00499822 0.0177466 0.0153891 0.013574 0.00900697 0.00681763 0.0146251 -0.00100565
internal_weight=3899.49 2409.4 1556.39 1490.09 1398.57 488.988 91.5196 42.9793 1476.95 1211.24 265.72 916.353 503.475 294.882 238.172 54.8304 56.7102 34.8016 48.5403 183.342 103.787 89.8696 49.6273 285.711 40.2423 31.5367 412.877 297.803 115.075 24.1283
internal_count=16800 9924 6233 6876 6488 2189 388 174 5882 4822 1060 3647 2003 1175 947 216 228 141 214 731 416 359 200 1134 159 126 1644 1188 456 97
is_linear=0
shrinkage=0.03


Tree=17
num_leaves=31
num_cat=0
split_feature=12 19 18 11 0 18 1 10 14 11 1 6 13 11 11 9 12 10 15 2 11 14 2 11 3 14 12 11 21 9
split_gain=2443.39 617.487 93.6489 70.3176 27.1477 14.7852 8.24886 6.90736 8.29223 8.73158 6.28486 5.84496 5.77518 6.91736 7.2394 9.76138 6.0492 10.6962 6.4521 6.62986 6.22485 6.8726 6.97971 6.15404 5.50229 10.1218 6.7624 5.35329 5.00078 5.8183
threshold=0.53525000000000011 1.0000000180025095e-35 1.0000000180025095e-35 0.53045000000000009 1.0000000180025095e-35 1.0000000180025095e-35 1.0000000180025095e-35 0.87505000000000011 0.86690000000000011 0.083900000000000016 1.0000000180025095e-35 1.0000000180025095e-35 0.13785000000000003 0.48825000000000007 0.38485000000000008 0.70505000000000007 0.73025000000000007 0.71065000000000011 0.11505000000000001 9.8690000000000015 0.60325000000000006 0.76760000000000017 2.8962500000000007 0.53045000000000009 5.9270500000000004 0.29195000000000004 0.79625000000000012 0.85035000000000005 -0.98296299999999992 0.94905000000000006
decision_type=2 2 2 2 2 2 2 2 2 2 2 2 2 2 2 2 2 2 2 2 2 2 2 2 2 2 2 2 2 2
left_child=3 2 6 10 -5 -6 7 8 9 -2 -1 -9 13 14 15 -11 17 -14 24 -20 21 22 -19 -24 25 -18 -27 -4 -8 -30
right_child=1 -3 27 4 5 -7 28 11 -10 12 -12 -13 16 -15 -16 -17 18 20 19 -21 -22 -23 23 -25 -26 26 -28 -29 29 -31
leaf_value=0.01032441178131871 0.034086878901648132 0.039429184237757119 -0.019612466554433321 -0.034755108682141413 0.0030461696329365591 -0.026943694327199709 -0.01454880079997469 0.021809140324153865 0.018777411765510985 0.018105849583094788 -0.012217663541841985 0.0052931573039298671 0.015066006541371843 -0.014697474712259895 0.024012453270823634 -0.019705267100738836 0.015866973814390187 -0.010773861959135232 0.014841092777992969 0.037893800816876995 0.017246245463717533 -0.015218769401440558 0.0091927600113075741 -0.010266966143655474 0.012877697479216672 0.0099560076827688426 -0.018312697581133488 -0.038206129041070201 0.0064054130045197279 -0.013336684647692231
leaf_weight=37.168074429035187 13.729506954550741 840.48849722743034 59.668662324547768 908.98256067931652 15.023114576935766 498.65960316359997 11.700282916426657 20.640547543764114 126.11339488625526 11.143617704510691 15.578184425830839 292.55383262038231 106.01402068138123 17.653036490082741 15.050106152892111 13.165901601314543 23.761793330311775 25.600970253348351 251.46954919397831 11.853749260306357 24.324756696820259 20.289841055870056 102.1433349698782 16.756170034408569 82.564050272107124 10.814582392573355 23.98048247396946 19.276710823178291 239.955133497715 13.956260353326796
leaf_count=148 54 3691 263 4347 60 2257 48 81 501 44 64 1168 422 72 59 54 94 104 999 46 96 83 407 68 329 43 98 88 955 57
internal_value=4.80794e-06 0.0187159 0.00750872 -0.0303606 -0.0316217 -0.0260599 0.00921471 0.0102679 0.0116127 0.0104312 0.00358913 0.00640441 0.00998907 0.000748175 0.00779076 -0.00224373 0.0107374 0.00743951 0.0131317 0.0159182 0.00313701 0.00101778 0.00333622 0.00641253 0.00789595 0.000800801 -0.00943415 -0.0242756 0.00440297 0.00529884
internal_weight=3870.08 2394.67 1554.18 1475.41 1422.67 513.683 1475.23 1209.62 896.429 770.315 52.7463 313.194 756.586 57.0127 39.3596 24.3095 699.573 295.129 404.444 263.323 189.115 164.79 144.5 118.9 141.121 58.5569 34.7951 78.9454 265.612 253.911
internal_count=16800 9924 6233 6876 6664 2317 5882 4822 3573 3072 212 1249 3018 229 157 98 2789 1180 1609 1045 758 662 579 475 564 235 141 351 1060 1012
is_linear=0
shrinkage=0.03


Tree=18
num_leaves=31
num_cat=0
split_feature=12 19 18 11 0 18 8 9 21 2 13 11 13 3 2 21 13 8 2 14 7 4 11 3 4 12 21 8 9 4
split_gain=2319.89 596.911 88.4996 67.3918 28.7108 19.5409 8.31129 9.15451 8.56996 8.44947 6.84964 8.27217 6.47504 6.1449 7.26979 12.4084 6.95254 8.30054 6.88113 7.76964 7.3432 7.23654 9.33842 8.06106 8.32041 6.65895 6.2462 6.14059 7.1945 10.4212
threshold=0.53525000000000011 1.0000000180025095e-35 1.0000000180025095e-35 0.49835000000000007 1.0000000180025095e-35 1.0000000180025095e-35 0.65615000000000012 0.61460000000000015 -0.78656599999999999 3.0649000000000002 0.29750000000000004 0.39815000000000006 0.25815000000000005 6.5235500000000011 7.7957500000000008 -1.0000000180025095e-35 0.14475000000000002 0.52875000000000016 7.4963500000000005 0.52755000000000007 9.846350000000001 18.486650000000004 0.38965000000000005 8.0474500000000013 15.850550000000002 0.83355000000000012 -0.37940949999999996 0.68415000000000015 0.80405000000000015 7.3654500000000009
decision_type=2 2 2 2 2 2 2 2 2 2 2 2 2 2 2 2 2 2 2 2 2 2 2 2 2 2 2 2 2 2
left_child=3 2 6 -1 -5 -6 13 -8 10 12 -9 -12 -10 14 16 -16 17 -2 19 -15 26 22 -21 -24 -25 -17 -20 -11 -29 -30
right_child=1 -3 -4 4 5 -7 7 8 9 27 11 -13 -14 18 15 25 -18 -19 20 21 -22 -23 23 24 -26 -27 -28 28 29 -31
leaf_value=0.0065220245359787887 0.0097247816774060636 0.038842751651488476 -0.023705361373971775 -0.034154281750193138 0.0042380025371236054 -0.026367300367701983 0.019702233731209925 0.024491429872807533 -0.029521199798894115 -0.0066882482771630607 -0.013176289389576223 0.017715456844027363 -0.003807946632951757 0.021682486050659457 -0.010616716735838637 0.015812252440914571 0.010688862897013688 -0.017937467375980648 -0.0046948118384135705 0.012065791685728853 0.022856585156795915 0.012488774097112815 -0.012420862521604618 0.0088444810951603288 -0.020073102878261358 -0.008217145576123578 0.016287193027146003 0.011891983947762735 0.022167293462296473 -0.0092643523309085922
leaf_weight=44.480264589190483 21.668201312422752 827.77817505598068 78.444801270961761 899.05650795996189 19.283576518297195 497.67369866371155 31.962532877922058 25.812118262052536 13.060812458395956 44.759093657135963 14.199605002999308 16.733864858746529 27.518156990408897 49.315757349133492 47.948983684182167 43.206136584281921 376.66609065234661 17.376265242695808 19.283105656504631 87.550797745585442 94.278135508298874 249.28111223876476 37.013683289289474 62.810913130640984 10.199588328599928 13.320970952510832 36.143319383263588 78.944446310400963 11.991260349750517 42.444037988781929
leaf_count=178 86 3691 351 4352 77 2269 127 101 54 181 58 66 111 195 195 171 1498 71 78 349 374 993 151 251 42 54 143 314 47 172
internal_value=5.02441e-06 0.0182723 0.00729474 -0.0297558 -0.0308982 -0.0252187 0.00895014 0.00454008 0.00275688 4.40366e-05 0.0131236 0.0034451 -0.0122618 0.0101093 0.00766107 0.000554672 0.00943871 -0.0025382 0.0120734 0.01035 0.017744 0.00908346 0.00476351 -0.00103135 0.00471991 0.0100877 0.00894289 0.00287467 0.00611142 -0.00222973
internal_weight=3840.21 2379.71 1551.93 1460.49 1416.01 516.957 1473.49 307.426 275.463 218.718 56.7456 30.9335 40.579 1166.06 520.187 104.476 415.711 39.0445 645.876 496.172 149.705 446.856 197.575 110.024 73.0105 56.5271 55.4264 178.139 133.38 54.4353
internal_count=16800 9924 6233 6876 6698 2346 5882 1231 1104 879 225 124 165 4651 2075 420 1655 157 2576 1981 595 1786 793 444 293 225 221 714 533 219
is_linear=0
shrinkage=0.03


Tree=19
num_leaves=31
num_cat=0
split_feature=11 19 13 2 18 0 8 1 13 8 10 2 14 10 4 9 10 21 2 8 2 10 13 14 3 8 2 3 8 14
split_gain=2090.36 488.39 244.353 48.5185 32.6051 25.1701 17.8333 15.4759 13.027 11.3622 15.5632 13.9407 9.6917 7.62174 7.43724 7.91627 7.37287 7.34995 6.16698 5.96559 5.8597 5.34031 5.06928 5.00205 11.4278 4.9201 4.87909 4.8387 4.67219 6.38627
threshold=0.57235000000000014 1.0000000180025095e-35 0.18485000000000004 4.9263000000000012 1.0000000180025095e-35 1.0000000180025095e-35 0.58865000000000012 1.0000000180025095e-35 0.25115000000000004 0.65615000000000012 0.80995000000000006 3.0295000000000001 0.66735000000000011 0.79305000000000014 19.687350000000006 0.90145000000000008 0.60575000000000012 -0.98296299999999992 5.745000000000001 0.67885000000000006 3.7615000000000003 0.84555000000000013 0.11025000000000001 0.29765000000000003 6.1098500000000007 0.52495000000000014 5.903900000000001 13.034450000000001 0.78545000000000009 0.70995000000000008
decision_type=2 2 2 2 2 2 2 2 2 2 2 2 2 2 2 2 2 2 2 2 2 2 2 2 2 2 2 2 2 2
left_child=1 4 3 5 9 -2 13 14 20 17 16 -12 26 -4 15 21 -11 -1 -15 -18 -8 -7 -16 -10 -25 -20 -5 -19 29 -9
right_child=2 -3 6 12 -6 7 8 28 23 10 11 -13 -14 18 22 -17 19 27 25 -21 -22 -23 -24 24 -26 -27 -28 -29 -30 -31
leaf_value=-0.0018227478812794314 -0.033670373300402907 0.038281167992944454 0.015599795374141889 -0.024873087223233972 -0.032787922170634982 -0.024979726382391494 -0.019660682883831285 -0.025960289578290493 0.020961534608924644 0.025904769945478121 -0.025065453962360901 0.00063330910652108566 0.021979710894864342 0.0098124123764500009 -0.014581414637374281 -0.035198976664142533 -0.0057047606025093104 0.010797325102621951 -0.019025291961632947 0.010787495963614403 0.00027765478495747034 -8.5536997756330405e-07 0.013557573310280156 -0.020596357565043431 0.0068209753451637985 0.006297951362615962 0.0019675580915075666 0.026453182538471155 -0.031534142207948632 -0.0047243486415195863
leaf_weight=40.81892816722393 867.48061260581017 814.92181786894798 70.359083995223045 9.6610819995403308 16.718326836824417 12.630320385098456 57.781563028693199 273.59191256761551 10.921874925494192 22.976530998945236 23.211431249976158 99.645733624696732 14.900804772973059 33.744775578379631 9.7439229786396044 17.320218294858932 24.71667417883873 939.33674241602421 17.326668336987499 92.051120460033417 16.811873257160187 19.879958495497704 13.435010716319082 18.68986938893795 49.354771330952644 11.03372150659561 15.420536786317824 18.296614438295364 163.46200436353683 13.837440982460974
leaf_count=165 4254 3691 280 43 75 56 263 1252 43 91 98 400 59 135 43 80 100 3748 71 367 69 88 56 77 198 44 62 72 758 62
internal_value=5.18921e-06 0.0201352 -0.0245217 -0.0295796 0.00855583 -0.030516 0.000782373 -0.0252763 -0.00615994 0.00911143 0.00353808 -0.00423043 0.00292093 0.00885006 -0.0123392 -0.0188527 0.0103855 0.0105733 0.00112959 0.00726709 -0.0151381 -0.00989032 0.00157668 0.00229997 -0.000704094 -0.00909303 -0.00836739 0.011105 -0.027358 -0.0249524
internal_weight=3810.08 2092.69 1717.39 1431.36 1277.77 1391.38 286.024 523.901 153.56 1261.05 262.601 122.857 39.9824 132.464 73.0094 49.8305 139.744 998.452 62.1052 116.768 74.5934 32.5103 23.1789 78.9665 68.0446 28.3604 25.0816 957.633 450.891 287.429
internal_count=16800 8807 7993 6813 5116 6649 1180 2395 650 5041 1056 498 164 530 323 224 558 3985 250 467 332 144 99 318 275 115 105 3820 2072 1314
is_linear=0
shrinkage=0.03


Tree=20
num_leaves=31
num_cat=0
split_feature=11 19 13 2 0 1 8 8 10 1 13 3 10 8 10 4 9 3 2 7 9 10 2 13 3 2 3 3 9 13
split_gain=1983.8 473.909 234.103 46.4991 24.8338 19.6676 21.1021 16.809 14.9141 14.858 12.3242 8.74531 8.5372 10.0951 7.19556 7.05325 7.60367 7.01668 6.41698 7.45317 9.03683 7.15615 5.80457 5.70969 5.62476 5.57108 5.45511 6.06082 8.28845 6.75133
threshold=0.57235000000000014 1.0000000180025095e-35 0.18485000000000004 4.9263000000000012 1.0000000180025095e-35 1.0000000180025095e-35 0.70265000000000011 0.58865000000000012 0.82555000000000012 1.0000000180025095e-35 0.25115000000000004 6.1098500000000007 0.71065000000000011 0.65615000000000012 0.79305000000000014 19.687350000000006 0.90145000000000008 4.374550000000001 3.0649000000000002 11.416650000000002 0.74935000000000007 0.78815000000000013 5.745000000000001 0.34555000000000008 9.977050000000002 3.7615000000000003 1.6631000000000002 4.7409000000000008 0.72555000000000014 0.29480000000000006
decision_type=2 2 2 2 2 2 2 2 2 2 2 2 2 2 2 2 2 2 2 2 2 2 2 2 2 2 2 2 2 2
left_child=1 5 3 4 -2 12 17 14 -8 15 25 -5 -1 26 -4 16 -6 -7 21 24 23 -15 -16 -21 -20 -9 -14 28 -28 -30
right_child=2 -3 7 11 9 6 8 10 -10 -11 -12 -13 13 18 22 -17 -18 -19 19 20 -22 -23 -24 -25 -26 -27 27 -29 29 -31
leaf_value=0.014684356729763537 -0.033089662380753955 0.037742535115082201 0.015164330175159495 -0.012200236868818054 -0.0096168679840163349 -0.0055898186912846032 0.0034573560084230188 -0.019179526013019033 -0.035590344183270166 -0.026765437656876428 0.0022327913343874999 0.015808513632167634 0.025468219955836091 0.0099299177206749051 0.0095278120903258493 0.0015258200619313663 -0.034512492836348982 0.0074030640856968394 0.0022428510931590028 0.013761618783030853 0.02654082456962072 -0.020551433015668624 -0.0088134151974918057 -0.013835822378036764 -0.020133527084207362 0.00026942421360303623 -0.013804546335022448 0.011216743719892182 -0.00070159643236278552 0.015447068550917219
leaf_weight=273.23759931325912 856.39546921849251 801.95466291904449 70.216086775064468 18.373785242438316 32.458122819662094 48.475464344024658 14.220922127366064 57.46407613158226 22.230141326785088 447.12636284530163 78.928635120391846 21.525223821401596 20.610233649611473 10.070540085434915 33.716570824384689 23.164568692445755 17.141483500599861 158.95953980088234 66.120429024100304 14.867973849177362 24.726517990231514 20.71295377612114 28.380046144127846 11.984306812286375 11.710499659180639 16.811796441674232 20.301490321755409 465.61467537283897 46.74760627746582 45.561662882566452
leaf_count=1095 4254 3691 280 78 144 196 58 263 99 2072 318 86 81 40 135 99 80 634 265 59 97 85 115 49 48 69 83 1858 188 181
internal_value=4.93217e-06 0.0196721 -0.0240102 -0.0290058 -0.0299315 0.00830989 0.000633969 0.000760777 -0.0203388 -0.0247126 -0.0059888 0.00283895 0.01012 0.00846957 0.00859597 -0.0120185 -0.018385 0.00434985 0.00175501 0.00470101 0.0135258 -0.0104832 0.00109577 0.00132262 -0.00112844 -0.0147482 0.0102596 0.00970368 0.00341219 0.00725274
internal_weight=3779.81 2078.11 1701.7 1416.19 1376.29 1276.15 243.886 285.517 36.4511 519.891 153.205 39.899 1032.27 759.029 132.313 72.7642 49.5996 207.435 160.193 129.41 51.5788 30.7835 62.0966 26.8523 77.8309 74.2759 598.836 578.225 112.611 92.3093
internal_count=16800 8807 7993 6813 6649 5116 987 1180 157 2395 650 164 4129 3034 530 323 224 830 643 518 205 125 250 108 313 332 2391 2310 452 369
is_linear=0
shrinkage=0.03


Tree=21
num_leaves=31
num_cat=0
split_feature=12 19 18 11 12 2 10 1 13 8 7 20 2 12 8 3 2 7 21 9 10 12 10 11 13 13 11 14 3 3
split_gain=1991.4 540.204 74.1601 58.9152 21.902 11.921 11.8981 7.37803 6.99409 6.90759 6.53508 6.51632 7.77252 6.73771 6.14914 6.13898 7.59424 6.13844 7.56377 6.03736 8.59189 9.81165 5.7855 5.55736 5.40247 5.33576 5.32721 5.27685 6.17928 9.62042
threshold=0.53525000000000011 1.0000000180025095e-35 1.0000000180025095e-35 0.49835000000000007 0.37535000000000007 5.1846500000000004 0.75975000000000015 1.0000000180025095e-35 0.16655000000000003 0.9214500000000001 6.9761500000000014 0.78656600000000021 3.4519500000000005 0.65785000000000016 0.66685000000000005 6.5615000000000014 4.9783000000000008 3.1897500000000005 -0.98296299999999992 0.91735000000000011 0.96445000000000014 0.63860000000000017 0.83495000000000008 0.17005000000000003 0.29480000000000006 0.34205000000000008 0.85035000000000005 0.23145000000000002 3.7614500000000004 4.144750000000001
decision_type=2 2 2 2 2 2 2 2 2 2 2 2 2 2 2 2 2 2 2 2 2 2 2 2 2 2 2 2 2 2
left_child=3 2 7 22 6 9 -5 10 -8 -6 11 12 14 -13 -2 23 -17 -9 -19 20 21 -14 24 -12 -1 -15 -4 -25 -29 -30
right_child=1 -3 26 4 5 -7 8 17 -10 -11 15 13 19 25 -16 16 -18 18 -20 -21 -22 -23 -24 27 -26 -27 -28 28 29 -31
leaf_value=0.026944949640702327 0.022965056459064659 0.037225121383836213 -0.017299131286550036 -0.0062624997954112364 -0.021646176183684009 0.0073425627169746077 -0.032129132287591497 -0.010931390654047314 -0.022211250423891497 -0.044065388540963729 0.022083561214281559 -0.026294137930587647 -0.020038163214924073 -0.0058744087836339965 -0.00060671411672512116 0.008449663509748441 0.015973666407296805 -0.019318278766077664 0.0062485597278816446 0.010708050516438045 -0.022047071709094493 0.0073837055234689817 -0.0071138291082970479 0.013622685912004509 0 0.015834473553122556 -0.036081818164106459 -0.0046337545138787828 0.026731887375758941 0.0051778875548503167
leaf_weight=14.5235692858696 41.791887611150742 788.90904581546783 58.202104181051254 17.535977780818939 246.74959334731102 12.089781090617178 1008.3929409384727 23.325378701090813 72.630833104252815 13.353857383131979 22.957549244165421 9.7054739445447904 13.655339717864988 32.210888311266899 12.722246363759039 216.25138309597969 282.83913199603558 10.662916094064711 230.97748492658138 79.25032664835453 13.911035567522047 75.881602093577385 17.937964618206024 82.325659304857254 11.894152149558066 14.638416886329649 18.624073892831802 49.415759518742561 20.16462729871273 235.77765479683876
leaf_count=57 165 3691 263 82 1145 49 5010 95 348 64 92 40 56 130 51 869 1134 44 921 315 57 303 73 328 48 58 88 200 79 945
internal_value=4.92936e-06 0.0170289 0.00671273 -0.0280721 -0.0291735 -0.0214856 -0.0310714 0.00821834 -0.0314698 -0.0228417 0.00921781 0.00530125 0.00748607 -0.00380395 0.0174271 0.0104778 0.0127243 0.00366378 0.00509292 0.00448763 -0.000260289 0.00313281 0.00587617 0.00773526 0.0147964 0.000883408 -0.0219732 0.00686692 0.00502799 0.0069073
internal_weight=3749.31 2334.2 1545.29 1415.11 1370.75 272.193 1098.56 1468.46 1081.02 260.103 1203.5 293.767 237.212 56.5548 54.5141 909.732 499.091 264.966 241.64 182.698 103.448 89.5369 44.3557 410.641 26.4177 46.8493 76.8262 387.684 305.358 255.942
internal_count=16800 9924 6233 6876 6698 1258 5440 5882 5358 1209 4822 1175 947 228 216 3647 2003 1060 965 731 416 359 178 1644 105 188 351 1552 1224 1024
is_linear=0
shrinkage=0.03


Tree=22
num_leaves=31
num_cat=0
split_feature=12 19 18 12 18 10 8 10 1 8 7 20 2 4 8 3 2 8 7 21 9 10 12 14 12 7 8 8 14 3
split_gain=1891.9 523.287 70.1016 47.1265 40.7737 12.5193 8.30211 7.52894 6.96805 6.43174 6.17529 6.14105 7.34586 6.40802 7.31511 5.84162 7.51167 5.82343 5.78112 7.13178 5.69255 8.08065 9.4494 5.60382 5.50652 5.22125 5.11896 5.32702 5.11785 5.44404
threshold=0.53525000000000011 1.0000000180025095e-35 1.0000000180025095e-35 0.38240000000000002 1.0000000180025095e-35 0.75975000000000015 0.59975000000000012 0.92295000000000016 1.0000000180025095e-35 0.9214500000000001 6.9761500000000014 0.78656600000000021 3.4519500000000005 22.555750000000003 0.49275000000000008 6.2342500000000003 7.4963500000000005 0.66685000000000005 3.1897500000000005 -0.98296299999999992 0.91735000000000011 0.96445000000000014 0.7571500000000001 0.43155000000000004 0.85535000000000017 5.8117500000000009 0.35355000000000009 0.45475000000000004 0.23145000000000002 3.7614500000000004
decision_type=2 2 2 2 2 2 2 2 2 2 2 2 2 2 2 2 2 2 2 2 2 2 2 2 2 2 2 2 2 2
left_child=3 2 8 5 7 -1 -7 -5 10 -6 11 12 17 14 -13 28 23 -2 -10 -20 21 22 25 -17 -24 -14 -25 -28 -12 -30
right_child=1 -3 -4 4 9 6 -8 -9 18 -11 15 13 20 -15 -16 16 -18 -19 19 -21 -22 -23 24 26 -26 -27 27 -29 29 -31
leaf_value=-0.0052811637203882041 0.022352631827004549 0.036727344615215027 -0.021466229403381418 0.0093914157880527135 -0.021351152231411017 -0.011534792296654283 -0.031181947893263482 -0.018341850525665258 -0.01061123660710908 -0.043518990751614299 0.013581609587819779 0.0095261284252330884 0.0015698791450067483 0.0089245637122684785 -0.020483009736481886 0.030276278650179046 0.018757359104131337 -0.00058877386740050332 -0.018777324848057046 0.0060647396756666732 0.010399212325533728 -0.021368547308969154 0.021839850421650875 -0.006916589773641596 -0.0013923907545391723 -0.018568361793095262 0.018793142798850419 0.0088200039712485346 -0.0034845783407628228 0.0072317372276629512
leaf_weight=17.944271460175514 41.656350091099739 775.81456878781319 76.308259457349777 51.714453563094139 223.58698429167271 20.523696660995483 1062.9419024139643 10.365907058119772 23.314460307359695 12.773588344454764 87.61193610727787 10.056931659579275 31.664586186408997 21.81514872610569 24.683377906680107 12.176548361778258 122.03666889667511 12.722686111927031 10.647002324461935 230.84704142808914 79.163079649209976 13.928251594305037 26.346614226698875 15.843737229704855 13.644396588206289 17.84033490717411 57.291748702526093 333.19246174395084 51.9247225522995 228.19668111205101
leaf_count=84 165 3691 351 207 1048 95 5336 44 95 62 350 40 127 87 101 48 490 51 44 921 315 57 104 65 55 73 229 1341 210 914
internal_value=4.75962e-06 0.0166315 0.00652149 -0.0275323 -0.0169165 -0.0304025 -0.0308147 0.00466844 0.00798248 -0.0225976 0.00895485 0.00514583 0.00726893 -0.00369131 -0.011705 0.0101811 0.0121751 0.0169477 0.00355477 0.00494246 0.00435454 -0.00025437 0.0030385 0.0102404 0.0138712 -0.0056726 0.00961805 0.0102998 0.00723691 0.00523354
internal_weight=3718.58 2318.73 1542.91 1399.85 298.441 1101.41 1083.47 62.0804 1466.6 236.361 1201.8 293.522 236.966 56.5555 34.7403 908.275 540.541 54.379 264.809 241.494 182.587 103.424 89.4959 418.504 39.991 49.5049 406.328 390.484 367.733 280.121
internal_count=16800 9924 6233 6876 1361 5515 5431 251 5882 1110 4822 1175 947 228 141 3647 2173 216 1060 965 731 416 359 1683 159 200 1635 1570 1474 1124
is_linear=0
shrinkage=0.03


Tree=23
num_leaves=31
num_cat=0
split_feature=11 19 13 2 16 8 10 2 8 1 13 14 7 7 9 13 9 4 13 21 9 10 13 10 13 13 7 8 14 3
split_gain=1700.59 433.097 205.894 41.1623 24.1611 17.02 22.2833 19.7727 14.343 13.7546 9.9828 8.43649 6.97273 6.78813 6.77301 6.64555 6.41361 7.97022 6.23913 6.22654 5.84422 6.73485 9.52214 5.51543 5.33477 7.4262 5.11189 5.11391 6.9194 4.96296
threshold=0.57235000000000014 1.0000000180025095e-35 0.18485000000000004 4.9263000000000012 1.0000000180025095e-35 0.66685000000000005 0.80995000000000006 3.0295000000000001 0.58865000000000012 1.0000000180025095e-35 0.25115000000000004 0.66735000000000011 8.4297000000000022 6.3052500000000009 0.68985000000000007 0.23070000000000004 0.89455000000000007 16.016100000000005 0.35615000000000008 -0.98296299999999992 0.61085000000000012 0.7914500000000001 0.23405000000000004 0.6583500000000001 0.060250000000000005 0.10685000000000001 9.6333000000000002 0.78545000000000009 0.70995000000000008 5.6759500000000012
decision_type=2 2 2 2 2 2 2 2 2 2 2 2 2 2 2 2 2 2 2 2 2 2 2 2 2 2 2 2 2 2
left_child=1 5 3 4 9 19 20 -8 14 16 -10 -5 13 15 23 -9 24 -18 -14 -1 -7 22 -22 -4 -2 -26 27 28 -11 -21
right_child=2 -3 8 11 -6 6 7 12 10 26 -12 -13 18 -15 -16 -17 17 -19 -20 29 21 -23 -24 -25 25 -27 -28 -29 -30 -31
leaf_value=-0.0018349000034057828 0.014897794378828412 0.036247751205561674 0.00752885116808206 -0.0079270396340976115 -0.031483185257419978 0.023522445341113238 -0.030285780781812266 -0.021374760253874969 -0.013573960314438402 -0.025361560233336067 0.0017823912411523703 0.020499605338980063 0.015934608989198622 -0.027795764301270443 0.0035580004259242 0.0050808204643994969 -0.036476504431914109 -0.0018071167192028189 -0.0096705854137738856 0.0068372972554041856 -0.012827248794991343 0.02724332291101611 0.0092175388383499406 0.030804009184047007 -0.030271850588910795 -0.00051105264564031575 -0.019345550053510976 -0.032165820226446505 -0.00028838699691714894 0.011377198395046834
leaf_weight=42.419684201478958 10.128098770976065 762.69845798611641 20.002974107861519 24.882716670632362 823.51323466002941 21.770172655582428 28.688193053007126 11.925249084830282 73.028387397527695 197.17272794246674 78.718486532568932 14.778426080942152 26.677170351147652 12.753447622060774 94.090883776545525 28.501540958881378 15.220725461840631 10.078736513853071 12.256772562861441 334.04373103380203 23.467582941055298 12.122933834791182 68.390067502856255 17.716667324304581 10.651918232440947 25.497288674116135 110.22437968850136 117.71203361451626 10.689242109656332 647.90369966626167
leaf_count=172 45 3691 81 105 4254 87 126 50 332 934 318 59 106 53 379 114 73 46 50 1339 97 48 274 70 49 110 521 568 49 2600
internal_value=4.71473e-06 0.0183781 -0.0225819 -0.0273956 -0.0282932 0.00764789 0.000557906 -0.00862369 0.000677204 -0.0230993 -0.00559627 0.00263967 -0.00179371 -0.00886841 0.0079198 -0.00271611 -0.0107952 -0.0229052 0.00778897 0.009351 0.0094017 0.006377 0.00353737 0.018645 -0.00404013 -0.00948137 -0.0251074 -0.0270358 -0.0240881 0.00983755
internal_weight=3687.73 2033.62 1654.11 1370.55 1330.89 1270.92 246.553 120.802 283.557 507.375 151.747 39.6611 92.1142 53.1802 131.811 40.4268 71.5768 25.2995 38.9339 1024.37 125.751 103.981 91.8577 37.7196 46.2773 36.1492 435.798 325.574 207.862 981.947
internal_count=16800 8807 7993 6813 6649 5116 1005 499 1180 2395 650 164 373 217 530 164 323 119 156 4111 506 419 371 151 204 159 2072 1551 983 3939
is_linear=0
shrinkage=0.03


Tree=24
num_leaves=31
num_cat=0
split_feature=12 19 18 11 0 18 1 11 10 11 11 12 3 12 4 14 11 2 9 6 21 3 3 20 9 3 14 21 3 11
split_gain=1710.72 490.991 62.4506 52.0479 26.1096 14.72 6.59631 5.8204 5.82983 5.24772 5.01104 4.83524 5.99416 7.99289 8.94323 7.12014 5.25756 6.70133 4.97811 4.7721 4.45683 4.25828 6.80028 4.23855 5.24817 4.18151 4.20908 4.07738 3.69955 3.45732
threshold=0.53525000000000011 1.0000000180025095e-35 1.0000000180025095e-35 0.50195000000000012 1.0000000180025095e-35 1.0000000180025095e-35 1.0000000180025095e-35 0.065150000000000013 0.60160000000000002 0.85035000000000005 0.79295000000000015 0.59160000000000013 7.4198500000000012 0.71495000000000009 11.173200000000003 0.85580000000000012 0.27845000000000003 8.1445000000000025 0.82765000000000011 1.0000000180025095e-35 -0.78656599999999999 12.014050000000001 10.478800000000001 0.37940950000000007 0.80205000000000015 3.3976000000000002 0.38685000000000008 -0.98296299999999992 12.014050000000001 0.5988500000000001
decision_type=2 2 2 2 2 2 2 2 2 2 2 2 2 2 2 2 2 2 2 2 2 2 2 2 2 2 2 2 2 2
left_child=3 2 6 23 -5 -6 7 -2 20 10 25 -8 13 14 -13 -14 -15 19 -16 -18 -9 22 -17 24 -1 -4 -27 -7 -10 -29
right_child=1 -3 9 4 5 27 11 8 28 -11 -12 12 15 16 18 21 17 -19 -20 -21 -22 -23 -24 -25 -26 26 -28 29 -30 -31
leaf_value=0.008722355117043919 0.026488337036596147 0.035785023082456388 -0.005633323946010761 -0.030856274021309187 0.0038168440170166561 -0.03909762799758993 0.019279781111580609 0.0026524680379645445 0.0072756326591206181 -0.03463269716524494 0.00090256606656511675 0.0050161268770661195 0.012737774575286728 -0.012999958843880496 -0.013104371700416843 0.007127189641933972 -0.0060380020794259404 -0.01401911125391344 -0.039895909858387354 0.014548427877413837 0.019464551451440111 0.013247097500514527 -0.021921613818807157 0.01679639867086755 -0.017006445915597652 -0.039751483484801009 -0.016804028099317327 -0.036495134552140089 0.015997797184838611 -0.022041216924792644
leaf_weight=16.743149638175968 15.951741904020308 749.58534221351147 12.929894760251043 831.62946572899818 18.747206792235374 14.61513704061508 15.739227637648581 18.655677542090416 1051.1482748389244 18.100206881761551 12.343737944960592 17.020599484443665 74.228015631437302 14.722986608743666 19.907095104455951 12.763815045356752 12.343473896384237 11.765794545412062 9.5364853590726835 50.051741257309914 66.56809538602829 10.324423000216482 16.035141557455063 16.825340092182159 12.074860259890555 12.751762464642526 19.105075418949127 16.432641819119453 46.292309507727623 442.27512083947659
leaf_count=67 64 3691 59 4351 75 71 62 76 4228 88 56 68 295 60 81 51 50 48 40 198 268 41 66 67 50 60 88 79 186 2116
internal_value=4.48018e-06 0.0158785 0.00617301 -0.0265138 -0.0276001 -0.0220806 0.00754603 0.00849376 0.00824408 -0.0204384 -0.0157839 0.00323576 0.00219367 -0.00205062 -0.0121197 0.0072827 0.00319472 0.00647647 -0.0220937 0.0104217 0.0158343 -0.00300297 -0.00898325 0.00490795 -0.00199764 -0.0204331 -0.0262738 -0.0231139 0.00764913 -0.0225812
internal_weight=3657.21 2287.87 1538.29 1369.34 1323.7 492.07 1463.05 1198.62 1182.66 75.2307 57.1305 264.439 248.7 135.348 46.4642 113.351 88.884 74.161 29.4436 62.3952 85.2238 39.1234 28.799 45.6433 28.818 44.7867 31.8568 473.323 1097.44 458.708
internal_count=16800 9924 6233 6876 6692 2341 5882 4822 4758 351 263 1060 998 545 189 453 356 296 121 248 344 158 117 184 117 207 148 2266 4414 2195
is_linear=0
shrinkage=0.03


Tree=25
num_leaves=31
num_cat=0
split_feature=12 19 18 11 0 18 8 10 21 8 10 13 8 13 21 11 11 20 9 12 12 7 3 7 3 2 4 8 8 11
split_gain=1625.78 476.162 59.0603 49.9741 24.3702 10.2067 6.27359 11.3264 6.87278 6.55308 6.70668 5.96595 6.88789 5.79559 7.51772 6.83831 6.67501 5.68067 7.64641 5.61813 5.59654 5.60507 5.49695 7.79797 7.38087 10.8468 6.21264 5.45266 5.4291 5.24936
threshold=0.53525000000000011 1.0000000180025095e-35 1.0000000180025095e-35 0.53045000000000009 1.0000000180025095e-35 1.0000000180025095e-35 0.65615000000000012 0.60575000000000012 -0.78656599999999999 0.68140000000000012 0.90525000000000011 0.29750000000000004 0.74835000000000007 0.42730000000000007 -0.98296299999999992 0.57235000000000014 0.41915000000000008 0.78656600000000021 0.83865000000000012 0.48350000000000004 0.63435000000000008 13.711400000000003 7.9342000000000015 6.5892000000000008 6.0709000000000009 5.2872000000000012 22.351750000000003 0.78355000000000008 0.72155000000000014 0.42305000000000004
decision_type=2 2 2 2 2 2 2 2 2 2 2 2 2 2 2 2 2 2 2 2 2 2 2 2 2 2 2 2 2 2
left_child=3 2 6 17 -5 -6 13 -8 11 29 -11 -9 -13 14 16 -16 -2 18 19 -1 21 -17 24 -24 25 -22 -27 -7 -12 -10
right_child=1 -3 -4 4 5 27 7 8 9 10 28 12 -14 -15 15 20 -18 -19 -20 -21 22 -23 23 -25 -26 26 -28 -29 -30 -31
leaf_value=-0.0092656882585973373 -0.017888236106438419 0.035337933611825745 -0.019975190769218092 -0.030335724718222448 0.0023774559911963291 -0.019978430863024838 0.02282453696669769 0.021811409736836446 -0.00058327412401288378 0.0054213778015462042 -0.024193180853494412 0.011920158504453189 -0.017447861828902764 0.013565425502447099 0.0092103090149677751 0.026604005453828551 0.0056832937993294237 0.022171550629059632 -0.022715761082368873 0.016744888815435229 0.017801653452573465 5.9389200169485218e-05 -0.014241640624974086 0.013599971218519644 -0.015959245962872071 0.0028301661514183447 -0.023759221429559507 -0.026831118316038034 0 -0.019032156783958511
leaf_weight=12.676499530673029 19.12687012553215 736.49795332551003 74.714554965496063 819.37488965690136 14.992272764444349 292.44511157274246 24.852231159806252 25.358301818370819 29.297528132796288 132.56017829477787 13.35900919139385 21.810010343790054 10.440129116177557 165.31248272955418 778.75426515936852 15.550560206174852 24.121956288814545 10.542617127299307 11.649551853537558 17.380605280399323 22.756641745567322 13.544572591781614 11.273549869656561 41.761168405413628 32.325377330183983 16.956615209579471 14.285315498709677 174.89790810644627 21.139593154191971 26.81012336909771
leaf_count=52 79 3691 351 4347 60 1401 100 100 118 533 55 87 43 664 3131 61 97 42 49 69 90 55 46 168 133 68 59 856 85 110
internal_value=4.27163e-06 0.0155087 0.00599616 -0.026016 -0.0271708 -0.0217778 0.00732856 0.00348609 0.00174869 -0.000626062 0.00234023 0.0109703 0.00227165 0.00834127 0.00746374 0.00802347 -0.00470657 0.00268992 -0.00224537 0.00568712 0.00251459 0.0144339 0 0.00759408 -0.00465788 0.00208608 -0.00930616 -0.0225598 -0.00937554 -0.00948834
internal_weight=3626.57 2272.61 1536.11 1353.96 1301.71 482.335 1461.4 305.627 280.775 223.166 167.059 57.6084 32.2501 1155.77 990.457 947.208 43.2488 52.2493 41.7067 30.0571 168.454 29.0951 139.359 53.0347 86.3239 53.9986 31.2419 467.343 34.4986 56.1077
internal_count=16800 9924 6233 6876 6664 2317 5882 1231 1131 901 673 230 130 4651 3987 3811 176 212 170 121 680 116 564 214 350 217 127 2257 140 228
is_linear=0
shrinkage=0.03


Tree=26
num_leaves=31
num_cat=0
split_feature=12 19 18 11 0 18 1 11 7 20 20 8 12 13 12 4 12 3 4 7 10 10 9 12 12 8 10 10 7 21
split_gain=1545.19 461.878 55.8139 47.9977 25.3771 13.4385 6.25091 5.53806 5.75318 6.28106 6.14204 10.4872 5.95172 5.79443 7.84565 8.323 6.03097 5.53281 9.00976 7.21227 6.51035 10.5649 6.3462 5.84329 6.05641 5.361 5.32851 5.93323 5.27134 6.36846
threshold=0.53525000000000011 1.0000000180025095e-35 1.0000000180025095e-35 0.50195000000000012 1.0000000180025095e-35 1.0000000180025095e-35 1.0000000180025095e-35 0.065150000000000013 6.9761500000000014 0.78656600000000021 0.91597550000000016 0.50805000000000011 0.65785000000000016 0.40120000000000006 0.64255000000000007 9.8591500000000014 0.73835000000000006 6.2342500000000003 10.111900000000002 31.291150000000005 0.81745000000000012 0.8488500000000001 0.83255000000000012 0.77265000000000017 0.82585000000000008 0.78355000000000008 0.79835000000000012 0.69135000000000013 3.0197000000000007 -0.98296299999999992
decision_type=2 2 2 2 2 2 2 2 2 2 2 2 2 2 2 2 2 2 2 2 2 2 2 2 2 2 2 2 2 2
left_child=3 2 6 -1 -5 -6 7 -2 9 -9 17 -12 -11 14 -13 -16 -17 18 23 -19 -20 -22 -23 26 -25 -7 27 -10 -8 -30
right_child=1 -3 -4 4 5 25 28 8 10 12 11 13 -14 -15 15 16 -18 19 20 -21 21 22 -24 24 -26 -27 -28 -29 29 -31
leaf_value=0.0046718322027943142 0.025655995289716158 0.034905349500149757 -0.019511635551137534 -0.029862390444785118 0.0036150009033216624 -0.019567680586910254 -0.011374605981554039 0.0062621330245694641 0.011424916759442381 -0.02601363952466865 0.027579965562572549 0.02851001980109211 -0.00030113637147310621 0.023544921259031123 0.019380801222854013 -0.024299551718521755 0.00073166567063551755 0.0093881999079318702 0.011097243906542011 0.030397845043076497 -0.016801350410602579 0.020300647799120469 -0.0029103706705912009 -0.025413569553028627 -0.0018375412764972865 -0.026378006052443205 0.017223529784233679 -0.01692734940590691 -0.01826219422949486 0.0052322929194860007
leaf_weight=45.521774545311928 15.836494684219359 723.45684988796711 74.207442104816437 808.89338533580303 18.735848486423492 291.70751410722733 21.05467364192009 233.56017628312111 11.755714610219004 9.7027492076158506 41.260984793305397 10.098822563886641 45.95981939136982 18.771978542208672 14.258286133408545 12.456822022795675 26.731515482068062 437.12670537829399 166.49578605592251 15.213888913393019 22.190533235669136 20.965760931372643 20.765431702136993 16.65448297560215 24.260322779417038 173.75524394214153 16.938198238611221 14.612447708845137 10.625835567712782 232.41249324381351
leaf_count=184 64 3691 351 4351 75 1407 86 937 47 40 165 40 185 75 57 52 109 1770 668 61 91 83 84 69 98 859 67 60 44 930
internal_value=4.351e-06 0.0151484 0.00582491 -0.02553 -0.0265961 -0.0211233 0.0071175 0.0080416 0.00779831 0.00409895 0.00899517 0.0152302 -0.00491397 0.00895176 0.00453338 -3.05157e-05 -0.00723184 0.00798295 0.00490439 0.0101146 0.00797569 -0.000117428 0.00872051 -0.00346171 -0.0115841 -0.0221266 0.00416118 -0.00418329 0.0029196 0.00417859
internal_weight=3595.99 2257.37 1533.92 1338.61 1293.09 484.199 1459.71 1195.62 1179.78 289.223 890.558 123.578 55.6626 82.3174 63.5454 53.4466 39.1883 766.979 314.639 452.341 230.418 63.9217 41.7312 84.2212 40.9148 465.463 43.3064 26.3682 264.093 243.038
internal_count=16800 9924 6233 6876 6692 2341 5882 4822 4758 1162 3596 498 225 333 258 218 161 3098 1267 1831 926 258 167 341 167 2266 174 107 1060 974
is_linear=0
shrinkage=0.03


Tree=27
num_leaves=31
num_cat=0
split_feature=12 19 18 11 0 18 8 10 21 8 10 3 11 8 8 11 2 11 4 2 21 11 14 14 3 8 11 7 12 14
split_gain=1468.72 448.073 52.7515 46.0716 25.0263 12.8314 5.89566 10.6163 6.51905 6.13213 6.24306 5.53304 5.19838 5.19824 5.11374 5.00588 4.97236 4.91021 4.87443 4.93167 4.84494 4.8347 4.71669 9.78388 5.97853 4.71023 4.55446 6.89036 4.52549 5.19102
threshold=0.53525000000000011 1.0000000180025095e-35 1.0000000180025095e-35 0.50195000000000012 1.0000000180025095e-35 1.0000000180025095e-35 0.65615000000000012 0.60575000000000012 -0.78656599999999999 0.68140000000000012 0.90525000000000011 12.864700000000001 0.85035000000000005 0.78355000000000008 0.72155000000000014 0.38485000000000008 1.9364500000000002 0.42305000000000004 25.651150000000005 1.5198000000000003 -0.78656599999999999 0.79295000000000015 0.51765000000000005 0.54225000000000012 6.6511500000000003 0.72365000000000013 0.74370000000000014 5.0670500000000009 0.59160000000000013 0.40515000000000007
decision_type=2 2 2 2 2 2 2 2 2 2 2 2 2 2 2 2 2 2 2 2 2 2 2 2 2 2 2 2 2 2
left_child=3 2 6 -1 -5 -6 11 -8 15 17 16 28 21 18 -12 25 -11 -10 22 -20 -15 -4 -7 -24 -25 -9 -26 -28 29 -2
right_child=1 -3 12 4 5 13 7 8 9 10 14 -13 -14 20 -16 -17 -18 -19 19 -21 -22 -23 23 24 26 -27 27 -29 -30 -31
leaf_value=0.0045340610342339549 0.02926613520573991 0.034486243258808988 -0.019039940628301832 -0.029383232219546619 0.0035085387363886548 -0.022555466516816877 0.021976652467435288 0.011441923646352612 -0.00075097662488751585 -0.013587122015178692 -0.023607936949051715 0.02176207622059044 -0.033378173626300002 -0.036551909837329581 0 0.017507390970493839 0.0068580442260005852 -0.018600336455841578 0.010642392253786184 -0.016325419905186895 -0.023300495974362682 0.0020599612432743815 0.01539841932103128 -0.031289161374924199 -0.023424539087899869 -0.016115544668593825 0.019348225855257303 -0.016357509984314025 0.0070764758241876041 0.010193992918980942
leaf_weight=45.504189848899841 17.281602695584297 710.48072442412376 43.915218904614449 797.5968571305275 18.73137055337429 203.45672549307346 24.679511800408363 12.517896652221681 29.27581088244915 11.472092255949972 13.367255330085753 25.417770817875862 17.598771765828133 32.465737789869308 21.126177594065666 35.226939469575882 120.84920553863049 26.834161952137947 9.3348477333784121 16.437231600284576 139.48836974799633 12.188966259360312 9.1275979131460172 18.951692074537277 12.976080715656279 9.7348528951406461 8.5349341332912463 10.765991836786268 1056.1758195757866 53.888003900647163
leaf_count=184 68 3691 207 4351 75 993 100 50 118 47 55 102 88 164 85 140 486 110 44 79 695 56 43 93 63 40 40 52 4264 217
internal_value=4.58456e-06 0.0147981 0.00565953 -0.0250544 -0.026111 -0.0206604 0.0069137 0.00318587 0.00150684 -0.000805916 0.00206665 0.00789696 -0.0190591 -0.0216489 -0.00923547 0.0105001 0.00504501 -0.00937632 -0.0191222 -0.00643523 -0.0258594 -0.0144115 -0.0203444 -0.0127918 -0.0179132 -0.000516122 -0.00982278 -0.000377974 0.00757789 0.0149362
internal_weight=3565.4 2242.03 1531.55 1323.37 1277.87 480.271 1457.85 305.084 280.404 222.925 166.815 1152.76 73.703 461.539 34.4934 57.4797 132.321 56.11 289.585 25.7721 171.954 56.1042 263.813 60.3563 51.2287 22.2527 32.277 19.3009 1127.35 71.1696
internal_count=16800 9924 6233 6876 6692 2341 5882 1231 1131 901 673 4651 351 2266 140 230 533 228 1407 123 859 263 1284 291 248 90 155 92 4549 285
is_linear=0
shrinkage=0.03


Tree=28
num_leaves=31
num_cat=0
split_feature=12 13 18 11 8 0 11 13 3 2 18 10 20 11 12 12 8 11 11 10 11 21 3 8 10 10 2 4 20 9
split_gain=1396.08 374.073 53.415 44.2449 25.2364 23.3993 13.0291 10.3352 14.2207 8.99665 8.85169 8.41984 6.68454 8.73722 5.9059 7.46498 6.25644 5.67685 6.91512 6.9993 6.29193 7.93447 6.3453 5.66474 5.45177 12.8336 5.37994 5.53806 5.34624 7.11103
threshold=0.53525000000000011 0.52965000000000007 1.0000000180025095e-35 0.53045000000000009 0.29310000000000008 1.0000000180025095e-35 0.40195000000000008 0.42730000000000007 9.8948500000000017 5.7918000000000012 1.0000000180025095e-35 0.64935000000000009 0.78656600000000021 0.46235000000000004 0.71775000000000011 0.59160000000000013 0.64175000000000015 0.19665000000000002 0.16295000000000001 0.86935000000000007 0.27845000000000003 -0.37940949999999996 5.0084500000000007 0.61125000000000007 0.71065000000000011 0.67130000000000012 4.8719500000000009 6.1217500000000014 0.78656600000000021 0.83865000000000012
decision_type=2 2 2 2 2 2 2 2 2 2 2 2 2 2 2 2 2 2 2 2 2 2 2 2 2 2 2 2 2 2
left_child=3 2 4 28 -2 -5 -3 11 9 26 -7 12 -6 -14 15 16 -13 18 19 -16 21 -19 -23 -11 25 -17 27 -9 29 -1
right_child=1 6 -4 5 7 10 -8 8 -10 23 -12 14 13 -15 17 24 -18 20 -20 -21 -22 22 -24 -25 -26 -27 -28 -29 -30 -31
leaf_value=0.0053038950664775876 0.028626134653242246 0.033940254661070993 -0.018623857483735264 -0.028897476020919726 0.0090412378468481252 0.0020973235045019943 0.011678415939625608 0.02879323804286579 0.029194841280992812 0.0066546073904935965 -0.021128903860602781 0.016540278534347752 0.036048135267613413 0.0044618726204395023 0.016069852216217026 -0.013634736600635777 -0.0051390757855083883 -0.016194667516292359 0.030142091462599371 -0.013779700927310951 0.0068099922824349478 -0.013959451866931961 0.011120429377601071 -0.012196427220942404 -0.0016545985156121222 0.01883594229789165 0.029026584150867587 0.0061398980138962708 0.02139506885785707 -0.022127683903239572
